2.014514654874801636e-01 1.862053722143173218e-01 1.923322677612304688e-01 2.060634493827819824e-01 2.048205733299255371e-01 1.955036818981170654e-01
-4.086528718471527100e-02 -1.564767584204673767e-02 -1.031371857970952988e-02 -4.315017256885766983e-03 -6.097225937992334366e-03 -5.372195737436413765e-04
7.136729359626770020e-02 6.416650861501693726e-02 7.345076650381088257e-02 6.306846439838409424e-02 6.198305264115333557e-02 7.868190854787826538e-02
-1.466370746493339539e-02 -7.097630761563777924e-03 -2.847904339432716370e-02 -1.955089159309864044e-02 -4.595246911048889160e-02 -4.025718942284584045e-02
-5.886264517903327942e-02 -6.509214639663696289e-02 -7.610926032066345215e-02 -6.515137851238250732e-02 -6.800364702939987183e-02 -4.059915989637374878e-02
4.927479475736618042e-02 4.017384350299835205e-02 -3.001299500465393066e-02 -2.069896645843982697e-02 -2.772803232073783875e-02 -2.426736988127231598e-02
-2.326129227876663208e-01 -1.726749688386917114e-01 -1.869421750307083130e-01 -1.639376431703567505e-01 -1.883702278137207031e-01 -1.946327090263366699e-01
1.068107858300209045e-01 7.678416371345520020e-02 7.758017629384994507e-02 8.563877642154693604e-02 9.880261123180389404e-02 7.817009836435317993e-02
-2.837496064603328705e-02 -2.889792993664741516e-02 -5.549461022019386292e-02 -1.957496628165245056e-02 -2.646295540034770966e-02 -2.987574785947799683e-02
4.127521812915802002e-02 2.686055563390254974e-02 3.723048418760299683e-02 3.271368145942687988e-02 3.899611905217170715e-02 3.723674640059471130e-02
-4.568299278616905212e-03 -6.316042039543390274e-03 -4.921338986605405807e-03 -3.931669984012842178e-03 -4.326921887695789337e-03 -3.157395636662840843e-03
-5.060917139053344727e-02 -5.656601861119270325e-02 -4.569358751177787781e-02 -4.061542078852653503e-02 -2.524109743535518646e-02 -4.518771916627883911e-02
6.115407217293977737e-03 -1.313238684087991714e-02 -2.969379723072052002e-02 -4.392795264720916748e-02 5.766005255281925201e-03 1.418356318026781082e-02
-3.508227877318859100e-03 -9.168681688606739044e-03 7.809232338331639767e-04 -2.282819477841258049e-03 -3.053577849641442299e-03 -2.465079538524150848e-03
-4.468173161149024963e-02 -1.397159043699502945e-02 1.503179222345352173e-02 -2.430456504225730896e-02 -1.086033647879958153e-03 -2.531121717765927315e-03
1.351084262132644653e-01 1.362589597702026367e-01 1.382761001586914062e-01 1.592542380094528198e-01 1.577119380235671997e-01 1.399192065000534058e-01
-6.126452237367630005e-02 -1.057947427034378052e-01 -1.059852540493011475e-01 5.905863642692565918e-02 4.718471691012382507e-02 9.659508615732192993e-02
1.372049003839492798e-01 1.614230275154113770e-01 1.613681763410568237e-01 1.644863337278366089e-01 1.355572491884231567e-01 1.649443805217742920e-01
6.564200739376246929e-04 -1.322839525528252125e-03 2.975158393383026123e-03 -6.427962798625230789e-03 2.646634355187416077e-03 -1.491322414949536324e-03
5.237739533185958862e-02 1.893241703510284424e-02 2.937833592295646667e-02 3.729592636227607727e-02 4.250075668096542358e-02 4.544460773468017578e-02
-4.691355302929878235e-02 -6.427669525146484375e-02 -6.794811040163040161e-02 -8.236317336559295654e-02 -8.690333366394042969e-02 -1.201143488287925720e-01
-2.291341871023178101e-02 1.862531644292175770e-04 -1.204865798354148865e-02 -1.411280315369367599e-02 4.206863231956958771e-03 -3.510742634534835815e-02
-1.887256745249032974e-03 -1.418208889663219452e-02 1.914968155324459076e-02 -5.062328651547431946e-03 1.160669606178998947e-02 -1.256553549319505692e-02
-1.984543353319168091e-01 -1.256230920553207397e-01 -1.529781967401504517e-01 -1.202972605824470520e-01 -1.327027380466461182e-01 -1.842517107725143433e-01
-1.332633104175329208e-02 -1.204370637424290180e-03 -2.387265302240848541e-02 -9.779625572264194489e-03 -2.602003887295722961e-02 -3.452326357364654541e-02
-5.108074285089969635e-03 -1.183010265231132507e-02 -3.995743114501237869e-03 -5.543603561818599701e-03 -2.311819791793823242e-02 -1.807174412533640862e-04
7.490525394678115845e-02 6.243651732802391052e-02 7.300606369972229004e-02 7.683730125427246094e-02 6.617068499326705933e-02 8.443324267864227295e-02
-3.129029413685202599e-03 -1.845270628109574318e-03 -2.756263827905058861e-03 1.221018610522150993e-04 -2.444487297907471657e-03 -1.015556394122540951e-03
-1.829510927200317383e-02 -5.414351075887680054e-02 -2.893159724771976471e-02 -4.414753243327140808e-02 -3.195390850305557251e-02 -4.588062316179275513e-02
1.788098737597465515e-02 -1.932596974074840546e-02 -5.912383552640676498e-03 -3.506935201585292816e-03 -2.823311835527420044e-03 1.535083632916212082e-02
2.688983222469687462e-03 -9.409331716597080231e-03 -3.431636840105056763e-03 1.540673337876796722e-02 -1.317750290036201477e-02 -1.245445385575294495e-02
5.491180345416069031e-04 -8.253497071564197540e-03 -6.866878364235162735e-03 -5.807411856949329376e-03 2.041334519162774086e-03 -7.142470683902502060e-03
1.134347692131996155e-01 1.114315763115882874e-01 9.656055271625518799e-02 9.329764544963836670e-02 9.900859743356704712e-02 1.095925197005271912e-01
-3.145687654614448547e-02 -8.424438536167144775e-02 -8.036427944898605347e-02 -9.157870709896087646e-02 -7.734988629817962646e-02 -2.210877649486064911e-02
1.218017637729644775e-01 1.174468770623207092e-01 1.139219850301742554e-01 1.314816474914550781e-01 1.086698472499847412e-01 1.136012300848960876e-01
-2.924616448581218719e-02 -3.479169309139251709e-02 -2.765672281384468079e-02 -3.231552988290786743e-02 -2.507088519632816315e-02 -2.138001285493373871e-02
5.052366852760314941e-02 4.863448068499565125e-02 6.075489893555641174e-02 4.966299608349800110e-02 7.093313336372375488e-02 5.549017712473869324e-02
-1.054210442816838622e-04 -6.328667048364877701e-03 -1.446073222905397415e-02 -1.524429954588413239e-02 -3.011951409280300140e-02 -5.274804681539535522e-02
-9.380785375833511353e-02 -9.429134428501129150e-02 -9.596687555313110352e-02 -8.984351158142089844e-02 -7.869130373001098633e-02 -9.395838528871536255e-02
4.685204848647117615e-02 3.417862951755523682e-02 4.734465107321739197e-02 -4.216280579566955566e-02 -4.759573563933372498e-02 -4.172733053565025330e-02
-1.649757921695709229e-01 -1.092706918716430664e-01 -1.424597650766372681e-01 -1.286236792802810669e-01 -1.314326077699661255e-01 -1.514530181884765625e-01
1.012022495269775391e-01 8.524829894304275513e-02 1.090831458568572998e-01 1.127664521336555481e-01 1.123147085309028625e-01 1.076592579483985901e-01
-6.292824447154998779e-02 -4.394222050905227661e-02 -5.286845564842224121e-02 -5.267392843961715698e-02 -5.080134794116020203e-02 -6.137160584330558777e-02
1.675086654722690582e-02 2.163407951593399048e-02 2.115687541663646698e-02 2.676875330507755280e-02 1.987145841121673584e-02 2.380324155092239380e-02
-1.540931290946900845e-03 -8.091352647170424461e-04 -2.747066610027104616e-04 -5.844627739861607552e-04 -1.819957280531525612e-03 5.703257920686155558e-05
-3.332880884408950806e-02 -2.968864701688289642e-02 -5.532869696617126465e-02 -5.773021653294563293e-02 -4.064808785915374756e-02 -5.481492355465888977e-02
1.348071848042309284e-03 2.418358437716960907e-02 -7.663075812160968781e-03 -9.218960069119930267e-03 3.757970780134201050e-02 -3.368478268384933472e-02
-7.410726696252822876e-02 -6.132896617054939270e-02 -3.767906129360198975e-02 8.493041619658470154e-03 -1.116447057574987411e-02 -1.334322616457939148e-02
-5.887201521545648575e-03 -1.616668305359780788e-03 5.525701562874019146e-04 1.104273833334445953e-03 2.938647288829088211e-03 -3.645926713943481445e-03
1.032113209366798401e-01 9.600760042667388916e-02 1.055839359760284424e-01 1.051393225789070129e-01 9.459394961595535278e-02 1.022172272205352783e-01
-2.613433822989463806e-02 1.829266431741416454e-03 3.571377322077751160e-02 8.145805448293685913e-03 -3.090753965079784393e-02 4.227847605943679810e-02
7.409066706895828247e-02 4.392316564917564392e-02 6.046131253242492676e-02 8.701121062040328979e-02 7.552465796470642090e-02 7.094632089138031006e-02
-8.736625313758850098e-02 -6.330212205648422241e-02 -3.225514292716979980e-02 -6.209247559309005737e-02 -2.401449531316757202e-02 -8.918535895645618439e-03
-1.004751250147819519e-01 -9.931964427232742310e-02 -5.196892470121383667e-02 -3.675799816846847534e-02 -2.242751233279705048e-02 -3.102303855121135712e-02
-1.668642042204737663e-03 -5.885915015824139118e-04 -8.808614686131477356e-03 -3.219487145543098450e-02 -2.109564654529094696e-02 -3.926677629351615906e-02
-2.606852725148200989e-02 -3.413860499858856201e-02 -3.318476304411888123e-02 -2.295232564210891724e-02 -1.537991408258676529e-02 -9.516114369034767151e-03
5.703033879399299622e-03 1.431232504546642303e-02 2.627645060420036316e-02 1.688696257770061493e-02 -2.292433939874172211e-02 -5.314407125115394592e-02
-1.694143563508987427e-01 -1.137229278683662415e-01 -1.344988048076629639e-01 -1.059557422995567322e-01 -1.127869114279747009e-01 -1.438421607017517090e-01
1.062737926840782166e-01 7.262587547302246094e-02 4.311223328113555908e-02 6.722570955753326416e-02 7.058244198560714722e-02 8.196834474802017212e-02
-3.954722732305526733e-02 -4.036417976021766663e-02 -2.437831275165081024e-02 -2.703180536627769470e-02 -4.108262434601783752e-02 -2.663939446210861206e-02
2.061341516673564911e-02 2.354157343506813049e-02 1.601189374923706055e-03 1.388753391802310944e-02 5.474088713526725769e-03 2.253312990069389343e-02
-9.513272903859615326e-03 -7.962037809193134308e-03 -6.447492633014917374e-03 -9.850456379354000092e-03 -1.473446842283010483e-02 -1.084868330508470535e-02
-1.018494367599487305e-02 -2.613276056945323944e-02 -8.246173383668065071e-04 -2.926490269601345062e-02 -1.580750755965709686e-02 -2.583189681172370911e-02
2.293495461344718933e-02 4.793885629624128342e-03 1.652581151574850082e-03 2.725418284535408020e-02 2.666934393346309662e-02 4.500528424978256226e-02
-1.612463779747486115e-02 -3.775749728083610535e-02 -8.151642978191375732e-03 5.921648815274238586e-03 -9.441579692065715790e-03 -5.605163984000682831e-03
-2.230574004352092743e-02 -2.244458347558975220e-02 1.452046632766723633e-02 -6.701812613755464554e-03 -1.921856589615345001e-02 -1.917220652103424072e-05
5.865640193223953247e-02 8.142409473657608032e-02 8.180815726518630981e-02 5.997083336114883423e-02 9.485396742820739746e-02 8.259063959121704102e-02
1.964564807713031769e-02 3.152903541922569275e-02 3.596387803554534912e-02 4.821065813302993774e-02 -2.168434858322143555e-02 -1.032330840826034546e-02
9.198188036680221558e-02 8.001226186752319336e-02 1.048981621861457825e-01 8.505645394325256348e-02 1.009944826364517212e-01 8.650484681129455566e-02
-1.545087806880474091e-02 -1.643805205821990967e-02 -7.152194622904062271e-03 -2.921252511441707611e-02 -1.454041805118322372e-02 -7.480022497475147247e-03
-4.033093526959419250e-02 -5.813523009419441223e-02 -6.538899242877960205e-02 -4.035597667098045349e-02 -4.072646424174308777e-02 -1.983834803104400635e-02
-1.164512615650892258e-02 -3.320121020078659058e-02 -3.737424314022064209e-02 -4.757623746991157532e-02 -4.421892017126083374e-02 -8.096611499786376953e-02
-9.800932556390762329e-02 -9.933288395404815674e-02 -9.862975776195526123e-02 -1.151047050952911377e-01 -7.950147241353988647e-02 -9.526888281106948853e-02
5.147138610482215881e-02 6.650701165199279785e-02 -4.067552462220191956e-02 -2.895526401698589325e-02 -2.468566596508026123e-02 -4.344832152128219604e-02
-1.705539226531982422e-01 -1.009343788027763367e-01 -1.320271044969558716e-01 -1.078264191746711731e-01 -1.035882383584976196e-01 -1.376776993274688721e-01
8.471572399139404297e-02 1.096265688538551331e-01 1.109274402260780334e-01 8.764815330505371094e-02 1.039686352014541626e-01 7.875883579254150391e-02
-2.337067387998104095e-02 -2.418128401041030884e-02 -1.098610740154981613e-02 -1.341083087027072906e-02 -2.678046561777591705e-02 -4.364809766411781311e-02
5.002249777317047119e-02 3.945361077785491943e-02 1.548402197659015656e-02 2.432773448526859283e-02 1.967971399426460266e-02 1.514273881912231445e-02
1.637740293517708778e-03 2.447470033075660467e-04 -2.622382016852498055e-04 -1.756911660777404904e-04 -1.540204277262091637e-03 -7.112015737220644951e-04
-3.813688084483146667e-02 -7.835466414690017700e-02 -8.064572513103485107e-02 -8.385351300239562988e-02 -6.854323297739028931e-02 -7.965768128633499146e-02
5.569725856184959412e-02 7.348387688398361206e-02 2.335905656218528748e-02 3.947172686457633972e-02 4.372774809598922729e-02 6.323011964559555054e-02
-7.737635634839534760e-03 -2.048449590802192688e-02 -5.972889717668294907e-03 -1.163707114756107330e-03 9.903481695801019669e-04 -6.095892749726772308e-03
-4.904698114842176437e-03 -2.185762673616409302e-02 -2.469065133482217789e-03 -3.871562192216515541e-03 -1.327812299132347107e-02 -2.450342103838920593e-02
4.502392932772636414e-02 5.962618067860603333e-02 4.262909665703773499e-02 3.154239058494567871e-02 3.825296461582183838e-02 4.039398580789566040e-02
2.649780549108982086e-02 3.761881217360496521e-02 -1.278183609247207642e-02 -2.853667736053466797e-02 1.998022384941577911e-02 4.081202670931816101e-02
1.052770018577575684e-01 1.051586270332336426e-01 1.043309867382049561e-01 9.946571290493011475e-02 1.212829798460006714e-01 9.374222159385681152e-02
-1.899730041623115540e-02 -3.840090706944465637e-02 -1.684830896556377411e-02 -3.032729402184486389e-02 -1.464120298624038696e-02 -1.834300928749144077e-03
-6.405882537364959717e-03 -1.463142130523920059e-02 -3.589420812204480171e-03 -1.045876648277044296e-02 6.782084703445434570e-03 -1.053804904222488403e-02
-5.843271501362323761e-03 -2.091281861066818237e-02 -3.017138317227363586e-02 -4.719781875610351562e-02 -3.590631112456321716e-02 -8.523850142955780029e-02
-8.845880627632141113e-02 -8.248987048864364624e-02 -8.759515732526779175e-02 -9.335593879222869873e-02 -8.150660991668701172e-02 -7.688574492931365967e-02
3.444106876850128174e-02 8.941701613366603851e-03 1.551392767578363419e-02 2.842568978667259216e-02 -3.661193698644638062e-02 -5.969859659671783447e-02
-1.371037960052490234e-01 -6.894514709711074829e-02 -9.347502142190933228e-02 -7.385294884443283081e-02 -6.133736670017242432e-02 -9.932827949523925781e-02
6.209755316376686096e-02 7.078256458044052124e-02 7.749034464359283447e-02 6.959524750709533691e-02 5.265633761882781982e-02 6.766244769096374512e-02
-3.503286838531494141e-02 -3.038732707500457764e-02 -8.134369738399982452e-03 -1.628540642559528351e-02 -3.721111267805099487e-02 -4.425084218382835388e-02
7.762868888676166534e-03 1.410613022744655609e-02 -8.158583194017410278e-03 6.514710374176502228e-03 1.410845387727022171e-02 9.426218457520008087e-03
2.691971312742680311e-04 -2.126735867932438850e-03 -4.007341805845499039e-03 -2.634610282257199287e-03 -2.243177266791462898e-03 -9.938981384038925171e-05
-4.515171423554420471e-02 -5.007791146636009216e-02 -5.946373939514160156e-02 -5.780411139130592346e-02 -6.524527072906494141e-02 -9.649817645549774170e-02
2.817572094500064850e-02 2.506566792726516724e-02 3.074262291193008423e-02 2.768887206912040710e-02 7.178396335802972317e-04 4.510097205638885498e-02
-2.101454325020313263e-02 -2.659736014902591705e-02 -1.082135736942291260e-02 9.749976918101310730e-03 -2.117243967950344086e-02 -7.673200219869613647e-03
-9.370168671011924744e-03 -8.665606379508972168e-03 8.039830252528190613e-03 -3.183610737323760986e-03 -1.462445594370365143e-02 3.485814202576875687e-03
5.555513873696327209e-02 5.330115929245948792e-02 5.980040132999420166e-02 1.990326680243015289e-02 1.459272764623165131e-02 2.124663628637790680e-02
3.837141767144203186e-02 8.590172976255416870e-03 -3.955298289656639099e-02 -2.283088397234678268e-03 1.285187341272830963e-02 1.376183610409498215e-02
2.133781090378761292e-02 3.431119024753570557e-03 1.267998106777667999e-02 7.128786761313676834e-03 -1.134959515184164047e-02 -2.532648667693138123e-02
-8.192387223243713379e-02 -9.116691350936889648e-02 -7.046119868755340576e-02 -1.068390905857086182e-01 -1.051212251186370850e-01 -1.012156084179878235e-01
-6.890710443258285522e-03 -5.892079207114875317e-05 -1.896202191710472107e-02 -1.777048408985137939e-02 -1.788696646690368652e-02 -4.138914495706558228e-02
-1.468070745468139648e-01 -1.152644529938697815e-01 -1.483327150344848633e-01 -1.240781173110008240e-01 -1.807337701320648193e-01 -2.211892306804656982e-01
-3.879133146256208420e-05 -1.379878493025898933e-03 -4.584520123898983002e-03 4.894368350505828857e-03 -2.196905203163623810e-03 -2.041924046352505684e-03
1.424494534730911255e-01 1.644979566335678101e-01 1.474310159683227539e-01 1.577366143465042114e-01 1.189419627189636230e-01 1.377772390842437744e-01
-2.363722771406173706e-01 -1.693944334983825684e-01 -1.336195170879364014e-01 -1.171704679727554321e-01 -1.216091364622116089e-01 -1.492782384157180786e-01
-4.848996922373771667e-02 -6.647252291440963745e-02 -5.378077179193496704e-02 -4.251692071557044983e-02 -7.333695888519287109e-02 -4.607900977134704590e-02
-9.120613336563110352e-03 -7.718190550804138184e-03 -2.345486544072628021e-03 -2.008552895858883858e-03 -1.196782197803258896e-02 9.562969789840281010e-04
9.885559231042861938e-02 9.605392068624496460e-02 7.540431618690490723e-02 7.319737970829010010e-02 8.359637111425399780e-02 9.690784662961959839e-02
-5.651739612221717834e-02 -7.121744751930236816e-02 -7.462665438652038574e-02 -8.071543276309967041e-02 -7.692034542560577393e-02 -4.561551287770271301e-02
-3.468937426805496216e-02 -4.337984696030616760e-02 -4.434483870863914490e-02 -6.410916894674301147e-02 -4.102634638547897339e-02 -5.770601704716682434e-02
-2.527206903323531151e-03 4.829667508602142334e-03 -2.261276356875896454e-03 -1.416716841049492359e-03 -5.465919384732842445e-04 -2.490154234692454338e-03
-1.156754232943058014e-02 -5.478351190686225891e-02 -5.346912145614624023e-02 -5.567942932248115540e-02 -7.920459657907485962e-02 -9.619265049695968628e-02
-4.908687621355056763e-02 -6.705048680305480957e-02 -3.121657297015190125e-02 -5.250824987888336182e-02 5.931596271693706512e-03 -2.265017852187156677e-02
2.844725921750068665e-02 1.791442511603236198e-03 1.490608137100934982e-02 1.299101160839200020e-03 5.384127143770456314e-03 1.179881021380424500e-02
-8.243488147854804993e-03 1.959400624036788940e-02 -6.072289310395717621e-03 -6.180182099342346191e-03 -6.902602501213550568e-03 -5.033013876527547836e-03
-1.333417464047670364e-02 -2.240426465868949890e-02 -3.153933584690093994e-02 -5.096419900655746460e-02 -6.517965346574783325e-02 -6.337024271488189697e-02
3.327400386333465576e-01 3.607446253299713135e-01 3.666858673095703125e-01 3.573533296585083008e-01 3.515574336051940918e-01 3.762942850589752197e-01
-7.012654840946197510e-02 -8.202943950891494751e-02 -9.796430170536041260e-02 -7.737658917903900146e-02 -9.057150036096572876e-02 -9.507402777671813965e-02
3.558467030525207520e-01 3.857483863830566406e-01 3.629076182842254639e-01 3.667376041412353516e-01 3.694056570529937744e-01 3.653165698051452637e-01
4.788823127746582031e-01 5.106045007705688477e-01 5.114364027976989746e-01 4.973177611827850342e-01 5.114645957946777344e-01 5.112637281417846680e-01
-1.405217796564102173e-01 -1.376127153635025024e-01 -1.236417517066001892e-01 -1.049831956624984741e-01 -1.245574578642845154e-01 -1.225142255425453186e-01
5.953732728958129883e-01 6.335112452507019043e-01 6.237210631370544434e-01 6.151714920997619629e-01 6.188523769378662109e-01 5.874422788619995117e-01
-1.110530346632003784e-01 -1.263784170150756836e-01 -1.080355644226074219e-01 -1.149889603257179260e-01 -8.781288564205169678e-02 -1.111443787813186646e-01
3.040359318256378174e-01 3.098260164260864258e-01 2.788135707378387451e-01 1.967198997735977173e-01 1.423388570547103882e-01 -5.535841733217239380e-02
1.118434518575668335e-01 1.210113316774368286e-01 1.051963418722152710e-01 1.000756397843360901e-01 1.187638640403747559e-01 1.112732067704200745e-01
1.009573712944984436e-01 8.741639554500579834e-02 1.465440094470977783e-01 2.067081481218338013e-01 1.577134579420089722e-01 1.845957785844802856e-01
1.332515180110931396e-01 1.375578939914703369e-01 1.256404370069503784e-01 1.114928647875785828e-01 1.426506042480468750e-01 1.088015362620353699e-01
8.204823732376098633e-02 4.684289544820785522e-02 7.036803662776947021e-02 7.786774635314941406e-02 5.879079550504684448e-02 5.735114589333534241e-02
3.115696012973785400e-01 3.291003406047821045e-01 2.861513197422027588e-01 3.171702623367309570e-01 2.921541631221771240e-01 3.050015270709991455e-01
8.471336960792541504e-02 7.377114146947860718e-02 7.294949144124984741e-02 9.387353062629699707e-02 7.307182252407073975e-02 2.009679749608039856e-02
-1.857327520847320557e-01 -1.647050827741622925e-01 -1.601680666208267212e-01 -2.006705105304718018e-01 -2.278839200735092163e-01 -2.325201183557510376e-01
-4.307914152741432190e-02 -2.637898363173007965e-02 -1.901320740580558777e-02 -1.935978420078754425e-02 -4.798520728945732117e-02 -4.778432101011276245e-02
-9.202515333890914917e-02 -8.426868915557861328e-02 -1.060854569077491760e-01 -1.322385221719741821e-01 -1.282248347997665405e-01 -1.310589611530303955e-01
3.038447201251983643e-01 2.867390215396881104e-01 2.860189974308013916e-01 3.015293180942535400e-01 3.169546127319335938e-01 3.245083987712860107e-01
-1.110692918300628662e-01 -8.188391476869583130e-02 -9.487108886241912842e-02 -9.065282344818115234e-02 -6.930076330900192261e-02 -8.309999108314514160e-02
2.751914858818054199e-01 2.540628910064697266e-01 2.608869671821594238e-01 2.530733048915863037e-01 2.584068775177001953e-01 2.682682275772094727e-01
4.161017835140228271e-01 3.977297544479370117e-01 4.182169735431671143e-01 4.167139232158660889e-01 4.112042784690856934e-01 4.101151525974273682e-01
-1.832121312618255615e-01 -1.675614118576049805e-01 -1.523491591215133667e-01 -1.376200467348098755e-01 -1.689693331718444824e-01 -1.457699239253997803e-01
5.354300737380981445e-01 5.272853374481201172e-01 5.399302840232849121e-01 5.120416283607482910e-01 4.967159330844879150e-01 4.985580444335937500e-01
-1.374990344047546387e-01 -1.488282978534698486e-01 -1.371815055608749390e-01 -1.372627764940261841e-01 -8.708906918764114380e-02 -6.635925918817520142e-02
7.408440113067626953e-02 2.046136111021041870e-01 2.154805362224578857e-01 1.900285482406616211e-01 -2.148008346557617188e-02 -4.430355876684188843e-02
-1.833889186382293701e-01 -1.682126671075820923e-01 -1.642642468214035034e-01 -1.546208262443542480e-01 -1.508163064718246460e-01 -1.505753695964813232e-01
1.624334156513214111e-01 1.821584254503250122e-01 1.860858350992202759e-01 1.300701200962066650e-01 1.055070683360099792e-01 1.106818839907646179e-01
-4.107422381639480591e-02 1.197481378912925720e-01 1.277484744787216187e-01 9.888698160648345947e-02 1.119352132081985474e-01 1.246604174375534058e-01
7.769119739532470703e-02 8.473993837833404541e-02 6.279587745666503906e-02 7.916111499071121216e-02 4.754725471138954163e-02 3.110292367637157440e-02
2.478082180023193359e-01 2.530481219291687012e-01 2.348188310861587524e-01 2.357705086469650269e-01 2.533243894577026367e-01 2.447527199983596802e-01
1.721782833337783813e-01 1.555808484554290771e-01 1.821555197238922119e-01 2.022594660520553589e-01 1.388989388942718506e-01 1.056630313396453857e-01
-2.354401350021362305e-01 -2.113738358020782471e-01 -1.947266757488250732e-01 -1.958066821098327637e-01 -1.386762708425521851e-01 -1.306585073471069336e-01
-6.943248212337493896e-02 -4.950521141290664673e-02 -6.448994576930999756e-02 -4.445255175232887268e-02 -5.027382075786590576e-02 -5.191498622298240662e-02
-5.655392631888389587e-02 -5.374288931488990784e-02 -6.086608394980430603e-02 -8.673223853111267090e-02 -8.747075498104095459e-02 -8.071260899305343628e-02
2.833948433399200439e-01 2.861634492874145508e-01 2.822286784648895264e-01 2.882691919803619385e-01 2.891415953636169434e-01 2.966217994689941406e-01
-1.653360873460769653e-01 -1.370821297168731689e-01 -1.518988609313964844e-01 -1.462809294462203979e-01 -1.483777463436126709e-01 -1.327670067548751831e-01
2.603987753391265869e-01 2.738994956016540527e-01 2.576189041137695312e-01 2.491900622844696045e-01 2.581886947154998779e-01 2.721710801124572754e-01
3.826021850109100342e-01 3.807007968425750732e-01 3.581983149051666260e-01 3.773868083953857422e-01 3.847148716449737549e-01 3.720039427280426025e-01
-1.715580374002456665e-01 -1.674019247293472290e-01 -1.527572125196456909e-01 -1.567894816398620605e-01 -1.588820517063140869e-01 -1.430510431528091431e-01
5.276654958724975586e-01 5.134113430976867676e-01 5.282054543495178223e-01 4.851952493190765381e-01 4.968656003475189209e-01 4.628078341484069824e-01
-1.156155541539192200e-01 -1.168921813368797302e-01 -1.070519611239433289e-01 -1.077133193612098694e-01 -7.651605457067489624e-02 -5.314395576715469360e-02
-2.528029121458530426e-02 -7.452420890331268311e-02 -5.429945886135101318e-02 3.683848679065704346e-01 3.453956544399261475e-01 3.052659034729003906e-01
-1.215569227933883667e-01 -1.051468104124069214e-01 -1.061993464827537537e-01 -1.102765873074531555e-01 -1.042708232998847961e-01 -1.070609316229820251e-01
-1.608558446168899536e-01 1.056752279400825500e-01 9.886880964040756226e-02 1.069529503583908081e-01 7.618586719036102295e-02 8.137526363134384155e-02
1.092158854007720947e-01 1.060346886515617371e-01 1.177444383502006531e-01 8.582196384668350220e-02 1.074245497584342957e-01 1.027766615152359009e-01
1.005786731839179993e-01 1.014415025711059570e-01 1.066669598221778870e-01 4.271651804447174072e-02 -2.691952511668205261e-02 -8.652419783174991608e-03
1.750794351100921631e-01 1.959334611892700195e-01 2.112330794334411621e-01 1.694710105657577515e-01 1.767277866601943970e-01 1.856121122837066650e-01
5.129692330956459045e-02 7.739401608705520630e-02 9.372904151678085327e-02 1.843523085117340088e-01 1.890629976987838745e-01 1.984605193138122559e-01
-2.240181416273117065e-01 -2.021003961563110352e-01 -1.572861373424530029e-01 -1.672884225845336914e-01 -1.340270191431045532e-01 -1.372764408588409424e-01
-7.628836482763290405e-02 -3.581872954964637756e-02 -3.896700590848922729e-02 -7.981647551059722900e-02 -6.813591718673706055e-02 -2.627768553793430328e-02
