-2.467923425137996674e-02 -1.176862325519323349e-02 -5.413272231817245483e-02 -5.528058111667633057e-02 -7.293067872524261475e-02 1.254172027111053467e-01
1.465320121496915817e-03 4.725712351500988007e-03 -5.010020919144153595e-03 -9.341246448457241058e-03 -1.333104632794857025e-02 -2.666091360151767731e-02
-1.352000609040260315e-02 -1.035768259316682816e-02 -2.527141384780406952e-02 -8.565111784264445305e-05 -1.139652100391685963e-03 2.348390175029635429e-03
-4.721923545002937317e-02 -5.153409764170646667e-02 -5.533411726355552673e-02 -8.673142641782760620e-02 -8.810923248529434204e-02 3.240535408258438110e-02
1.096962951123714447e-03 -1.685084961354732513e-02 -8.957986533641815186e-02 -1.701754033565521240e-01 -1.066122353076934814e-01 -4.146890714764595032e-03
2.868274450302124023e-01 -8.123122155666351318e-02 -1.136791631579399109e-01 -8.469318598508834839e-02 -8.047739416360855103e-02 -9.917252510786056519e-02
-4.230675473809242249e-02 -5.889235064387321472e-03 -2.548818476498126984e-02 -3.835003823041915894e-02 -1.808602362871170044e-02 -9.044317901134490967e-02
-3.097918117418885231e-03 -5.366280674934387207e-03 -1.510279439389705658e-02 2.470903098583221436e-02 -3.202936425805091858e-02 4.155359044671058655e-02
-6.258334498852491379e-03 -5.903449840843677521e-03 -3.354159416630864143e-03 -3.696385072544217110e-03 -1.092484407126903534e-02 -8.973731659352779388e-03
-1.340516842901706696e-03 -4.596888646483421326e-02 -7.952415943145751953e-02 -9.787695854902267456e-02 -9.325860440731048584e-02 5.261786654591560364e-02
-2.171424916014075279e-03 -2.024011686444282532e-03 -2.747990656644105911e-03 -2.314776182174682617e-02 -4.785352945327758789e-02 -3.109172452241182327e-03
-1.145153585821390152e-02 -1.717606559395790100e-02 -1.965822651982307434e-02 -1.066304277628660202e-02 -1.453829184174537659e-02 -3.523875772953033447e-02
-1.904812827706336975e-02 -3.670840291306376457e-03 -1.717329397797584534e-02 1.199398934841156006e-02 -2.534515038132667542e-02 -7.629376836121082306e-03
-6.170232663862407207e-04 -9.633910842239856720e-03 -7.210511248558759689e-04 2.983193378895521164e-03 -2.449411712586879730e-02 2.938046818599104881e-03
-9.527248330414295197e-03 -2.979599230457097292e-04 -5.011339206248521805e-03 -1.938607543706893921e-03 -3.529104217886924744e-02 -1.291879918426275253e-02
-3.815761534497141838e-03 -2.347078360617160797e-02 -6.088745221495628357e-02 -7.047905772924423218e-02 -1.239226199686527252e-02 1.274840980768203735e-01
-1.633875630795955658e-02 -1.733781024813652039e-02 -1.888719014823436737e-02 -2.051331661641597748e-02 -9.260768070816993713e-03 6.176692992448806763e-02
-1.757484078407287598e-01 3.608360141515731812e-02 6.259422004222869873e-02 3.699373826384544373e-02 9.528013318777084351e-02 -1.055575981736183167e-01
-6.366563588380813599e-02 -1.014779042452573776e-02 -3.294404223561286926e-02 -3.255271539092063904e-02 -1.098498515784740448e-02 -1.560274697840213776e-02
-9.436644613742828369e-02 -5.088312178850173950e-02 -3.351207450032234192e-02 -2.642216160893440247e-02 7.187114655971527100e-02 7.232436537742614746e-02
-1.804186552762985229e-01 -9.295582771301269531e-03 2.164126560091972351e-02 1.784213073551654816e-02 -1.863863319158554077e-02 -1.130640804767608643e-01
-4.136650562286376953e-01 -6.716429442167282104e-02 -1.546421088278293610e-03 -2.823694609105587006e-03 1.041221618652343750e-02 -5.543790291994810104e-03
-8.618180453777313232e-02 -2.271917648613452911e-02 1.049627643078565598e-02 4.424811154603958130e-02 -1.319585368037223816e-02 -2.928626164793968201e-02
-4.984999820590019226e-02 -9.860868752002716064e-02 -1.105161830782890320e-01 -8.388553559780120850e-02 -7.130993902683258057e-02 -1.118913888931274414e-01
-7.070397585630416870e-02 4.873142018914222717e-02 4.508913308382034302e-02 2.812456712126731873e-02 -3.397810086607933044e-02 -3.941906243562698364e-02
-7.125802803784608841e-03 -9.753687307238578796e-03 -9.442319162189960480e-03 -8.188519626855850220e-03 -9.367545135319232941e-03 -4.828659817576408386e-03
-1.931102871894836426e-01 -9.848269820213317871e-02 5.038551241159439087e-02 5.737803876399993896e-02 6.679093837738037109e-02 7.473544776439666748e-02
-6.517075002193450928e-02 -2.978142909705638885e-02 8.044269867241382599e-03 -1.148669980466365814e-02 2.265522256493568420e-03 2.357053337618708611e-03
-4.246629774570465088e-02 2.008622977882623672e-04 -8.301782421767711639e-03 -1.049036812037229538e-02 -1.388739794492721558e-02 -4.729359969496726990e-02
-3.994590789079666138e-02 -3.612306434661149979e-03 1.212928327731788158e-03 -6.341372616589069366e-03 1.003803219646215439e-02 -1.340569113381206989e-03
-9.055674821138381958e-02 4.837648943066596985e-02 4.684216156601905823e-02 -1.054128352552652359e-02 -6.129103526473045349e-02 -6.767990440130233765e-02
-1.376326568424701691e-02 -1.711517758667469025e-02 -4.321299958974123001e-03 -3.247734857723116875e-03 -6.108531961217522621e-04 -4.016553517431020737e-03
-1.704629361629486084e-01 1.174621433019638062e-01 5.866163223981857300e-02 3.265351988375186920e-03 -2.845608256757259369e-02 1.699443720281124115e-02
-6.398097425699234009e-02 5.471296980977058411e-02 -7.613559719175100327e-03 5.361111834645271301e-04 1.164429821074008942e-03 -5.108289420604705811e-02
-8.912762999534606934e-02 -9.742963314056396484e-02 -8.231073617935180664e-02 1.261496990919113159e-01 1.040165647864341736e-01 7.577102631330490112e-02
-6.817062851041555405e-03 -5.494105163961648941e-03 -5.367257166653871536e-03 -9.655418805778026581e-03 -3.671583905816078186e-02 -3.680127486586570740e-02
-1.955142617225646973e-02 -7.875044643878936768e-02 -5.068992450833320618e-02 3.716713283210992813e-03 3.340969234704971313e-02 3.689298033714294434e-02
-7.523930072784423828e-02 -9.369491785764694214e-02 -1.113894060254096985e-01 -2.351899631321430206e-02 -6.732932478189468384e-02 -3.187717869877815247e-02
-9.574558585882186890e-02 -2.028045356273651123e-01 -2.437149733304977417e-01 -6.046834867447614670e-03 4.333108081482350826e-04 4.568212665617465973e-03
-3.364983946084976196e-02 -2.576598338782787323e-02 -2.018106542527675629e-02 -5.141044035553932190e-02 -5.663900822401046753e-02 -6.566695123910903931e-02
-3.898622840642929077e-02 -5.460684373974800110e-02 -3.622974082827568054e-02 -9.278303384780883789e-02 -6.427954137325286865e-02 -6.586535274982452393e-02
3.233472257852554321e-02 1.308017410337924957e-02 4.838134627789258957e-03 7.924889773130416870e-02 7.154715061187744141e-02 2.791443467140197754e-02
-1.272008661180734634e-02 -1.432919641956686974e-03 -7.711336016654968262e-03 -1.088553573936223984e-02 -4.092858359217643738e-02 -3.082809783518314362e-02
-8.278809487819671631e-02 -9.643588215112686157e-02 -1.507769823074340820e-01 3.939107805490493774e-02 3.815931454300880432e-02 2.976098470389842987e-02
-2.256699278950691223e-02 -5.934227257966995239e-02 -8.050297200679779053e-02 -5.395288579165935516e-03 -1.280269119888544083e-02 -1.274934504181146622e-02
-2.189187798649072647e-03 -2.490553772076964378e-03 -8.634233963675796986e-04 -2.087075635790824890e-02 -7.230301387608051300e-03 -1.480391062796115875e-02
-3.520302847027778625e-02 -1.727298460900783539e-02 -3.505064919590950012e-02 1.755008660256862640e-02 -1.333931367844343185e-02 -3.957829903811216354e-03
-1.075551845133304596e-03 -1.054099202156066895e-02 -2.707205712795257568e-02 7.358232687693089247e-05 -2.778643183410167694e-02 -3.383952006697654724e-02
-2.920679934322834015e-02 -5.860946839675307274e-04 -2.430044673383235931e-02 -2.273084130138158798e-03 -1.171048381365835667e-03 -8.998141129268333316e-05
-1.966150477528572083e-02 -5.964867025613784790e-02 -1.989594101905822754e-02 6.319833546876907349e-02 2.840542793273925781e-02 1.491276081651449203e-02
-3.847452253103256226e-02 -4.869456589221954346e-02 -5.220478028059005737e-02 3.245744854211807251e-02 -8.728895336389541626e-03 -1.448140013962984085e-02
-8.519001305103302002e-02 -9.819425642490386963e-02 6.988068670034408569e-02 2.347621880471706390e-02 4.813991487026214600e-02 1.513252407312393188e-02
-2.118662465363740921e-03 -2.932115690782666206e-03 -2.304948866367340088e-03 -1.907948404550552368e-02 -1.675883680582046509e-02 -1.355347782373428345e-02
-6.502760946750640869e-02 -1.040250808000564575e-01 -4.960850253701210022e-02 -7.363695651292800903e-02 8.511693775653839111e-02 1.206786856055259705e-01
-8.533182740211486816e-02 -9.796299785375595093e-02 4.804011061787605286e-02 -8.909204974770545959e-03 4.072450846433639526e-02 -6.578792631626129150e-02
-2.773702144622802734e-01 -2.837814092636108398e-01 -1.922245603054761887e-03 -2.779095200821757317e-03 2.611535310279577971e-04 -1.497134915553033352e-03
-5.474048480391502380e-02 -2.032198011875152588e-02 -4.633625969290733337e-03 -1.966214366257190704e-02 2.062076516449451447e-02 -4.442433640360832214e-02
-7.927868515253067017e-02 -6.333326548337936401e-02 -9.815381467342376709e-02 -1.060549691319465637e-01 -6.216786056756973267e-02 -6.708275526762008667e-02
2.153839915990829468e-03 -9.065389633178710938e-03 4.058284312486648560e-02 1.443645358085632324e-02 -4.572022706270217896e-03 -3.252445906400680542e-02
-1.047937013208866119e-02 -1.164592243731021881e-02 -3.233768418431282043e-02 -1.487077213823795319e-02 -9.609658271074295044e-03 -2.303952118381857872e-03
-8.017420768737792969e-02 -1.183134540915489197e-01 3.756292909383773804e-02 3.240719437599182129e-02 7.034981250762939453e-02 5.174402147531509399e-02
-6.232148036360740662e-02 -6.443545222282409668e-02 6.769966334104537964e-03 6.392028648406267166e-03 -1.031868252903223038e-02 1.426181523129343987e-03
-1.637336611747741699e-02 -1.789882034063339233e-02 -1.155968569219112396e-02 -2.326784282922744751e-02 -3.509099036455154419e-02 -6.311811972409486771e-03
-1.459954865276813507e-02 -4.381190240383148193e-02 3.815286234021186829e-02 -1.795239560306072235e-02 1.539932657033205032e-02 -5.714083090424537659e-03
-9.833093499764800072e-04 -3.525777161121368408e-02 3.631706163287162781e-02 5.003091646358370781e-04 -7.452837377786636353e-02 -1.132618039846420288e-01
-1.957100583240389824e-03 -1.331037376075983047e-02 -5.258443299680948257e-03 -3.494727890938520432e-03 -5.436455830931663513e-03 -1.689657010138034821e-02
-7.588813453912734985e-02 -6.223530322313308716e-02 1.101470217108726501e-01 7.348797470331192017e-02 -1.950597157701849937e-03 -1.001614890992641449e-02
-3.761624544858932495e-02 -3.407122939825057983e-02 5.173710361123085022e-02 1.098767109215259552e-02 3.499298170208930969e-02 -4.373543709516525269e-02
-1.537211537361145020e-01 8.658241480588912964e-02 3.966011852025985718e-02 5.581650510430335999e-02 8.341290056705474854e-02 -1.303566694259643555e-01
-5.080105364322662354e-02 8.330811746418476105e-03 -1.424520369619131088e-02 5.309178493916988373e-03 -1.562392059713602066e-02 -1.041162852197885513e-02
-1.249679401516914368e-01 -7.063178718090057373e-02 -3.456214442849159241e-02 -1.765443384647369385e-02 1.038476899266242981e-01 9.452073276042938232e-02
-1.233114823698997498e-01 5.950770806521177292e-03 -1.731797493994235992e-02 -2.924053184688091278e-02 -7.241576164960861206e-02 -5.799999833106994629e-02
-3.605133593082427979e-01 -3.677201643586158752e-02 -4.841654095798730850e-03 -9.040018543601036072e-03 1.982755260542035103e-03 2.538064727559685707e-04
-3.202116489410400391e-02 -3.694745479151606560e-03 -1.236004102975130081e-02 -9.710168465971946716e-03 -1.676889881491661072e-02 -3.113697469234466553e-02
-3.488182649016380310e-02 -5.644649267196655273e-02 -5.411329865455627441e-02 -4.432052001357078552e-02 -4.020870104432106018e-02 -4.136361181735992432e-02
-4.871141910552978516e-02 5.334708467125892639e-02 3.232049569487571716e-02 -5.454928614199161530e-03 -1.390179386362433434e-03 2.832227852195501328e-03
-7.838416844606399536e-03 -6.196418777108192444e-03 -3.417497873306274414e-02 -1.294499915093183517e-02 -7.887161336839199066e-03 -7.260494399815797806e-03
-9.668789058923721313e-02 -2.012827992439270020e-02 -2.023249492049217224e-02 -2.111457847058773041e-02 3.654902335256338120e-03 -2.157834358513355255e-02
-5.174746364355087280e-02 2.179747074842453003e-02 -1.379135530441999435e-03 -2.229352295398712158e-02 -3.015287220478057861e-03 2.432779176160693169e-03
-7.104990538209676743e-03 -2.533435821533203125e-02 -1.041055656969547272e-05 -2.271290170028805733e-03 9.358799085021018982e-03 -1.429112162441015244e-02
-4.059391096234321594e-02 2.410205081105232239e-02 1.347632787656039000e-04 5.895926151424646378e-03 2.468751277774572372e-03 -7.219519466161727905e-03
-7.264207303524017334e-02 3.461506590247154236e-02 4.151084646582603455e-02 -7.475355640053749084e-03 -1.020914837718009949e-01 -1.074192151427268982e-01
-2.575851604342460632e-02 -6.466167978942394257e-03 4.431358538568019867e-03 -1.872992725111544132e-03 7.332611363381147385e-03 -3.364059608429670334e-03
-1.278548687696456909e-01 1.025209575891494751e-01 7.970846444368362427e-02 1.598711311817169189e-02 -3.127029398456215858e-03 2.947279810905456543e-02
-5.939063057303428650e-02 1.933165825903415680e-02 -1.834435202181339264e-02 3.854652494192123413e-02 1.758110709488391876e-02 -4.707925021648406982e-02
-1.075737327337265015e-01 -1.010826379060745239e-01 7.999753206968307495e-02 6.047122925519943237e-02 5.609970912337303162e-02 9.661281853914260864e-02
-4.189538303762674332e-04 -3.861581534147262573e-02 -4.368984606117010117e-03 -2.150734327733516693e-02 -1.584446057677268982e-02 -1.970581524074077606e-02
-1.269837468862533569e-01 -1.035659387707710266e-01 -6.086389347910881042e-02 4.931810125708580017e-02 9.582193195819854736e-02 9.525627642869949341e-02
-8.593043684959411621e-02 -1.137305125594139099e-01 -1.653048023581504822e-02 -1.436611823737621307e-02 -1.484746811911463737e-03 -7.083486765623092651e-02
-2.567568123340606689e-01 -2.461135834455490112e-01 -4.030025564134120941e-03 2.746846061199903488e-03 3.726453520357608795e-03 2.260198816657066345e-03
-6.752057373523712158e-02 -7.843844592571258545e-02 -4.155169799923896790e-02 -3.730016946792602539e-02 -5.752337351441383362e-02 -4.119064658880233765e-02
-5.466933548450469971e-02 -5.099201202392578125e-02 -9.069079905748367310e-02 -5.106563121080398560e-02 -4.803499206900596619e-02 -3.194800764322280884e-02
-6.826606579124927521e-03 4.318082332611083984e-02 1.136189885437488556e-02 6.537942588329315186e-02 5.760362744331359863e-02 -1.781432516872882843e-02
-8.186016231775283813e-03 -1.010690699331462383e-03 -2.366714552044868469e-02 -1.817785762250423431e-02 -1.415876019746065140e-02 -1.417731493711471558e-02
-8.641558885574340820e-02 -1.202344968914985657e-01 -4.164595156908035278e-02 -1.873310655355453491e-02 -2.292342670261859894e-02 -2.541776746511459351e-02
-5.042054504156112671e-02 -4.417916014790534973e-02 -5.066654179245233536e-03 -6.890216842293739319e-03 7.391588296741247177e-04 -2.771950559690594673e-03
-7.359223440289497375e-03 -1.092375442385673523e-02 -2.356848679482936859e-02 -4.377395845949649811e-03 -4.070869646966457367e-03 7.651554187759757042e-04
-3.469691053032875061e-02 -2.877243421971797943e-02 1.800074987113475800e-02 3.227617591619491577e-03 -1.792659610509872437e-02 -1.865039579570293427e-02
-4.289955645799636841e-02 -6.886429339647293091e-02 9.900986403226852417e-02 2.974686957895755768e-02 -5.305885896086692810e-02 -7.786198705434799194e-02
-3.830228932201862335e-03 -1.229693181812763214e-02 2.730898791924118996e-03 3.761646803468465805e-03 -6.569651421159505844e-03 6.023658905178308487e-03
-7.300566881895065308e-02 -7.357755303382873535e-02 1.112591773271560669e-01 3.507189825177192688e-02 -9.472570382058620453e-03 -2.313568443059921265e-02
-3.885747492313385010e-02 -6.211683899164199829e-02 5.614772066473960876e-02 8.106297813355922699e-03 1.348359324038028717e-02 -1.025736052542924881e-02
2.953478321433067322e-02 -2.785594016313552856e-02 -2.645772695541381836e-02 -7.933683693408966064e-03 -2.896978519856929779e-02 1.704841852188110352e-02
-5.627894774079322815e-03 -4.106408357620239258e-02 -2.901006489992141724e-02 -6.931202951818704605e-03 -1.169095002114772797e-02 -1.333696302026510239e-02
1.108048949390649796e-02 -5.819347873330116272e-02 -4.522543400526046753e-02 1.596613787114620209e-02 1.064267288893461227e-02 3.492211923003196716e-02
-8.865829557180404663e-03 -8.102834969758987427e-02 -6.268955767154693604e-02 -8.278278261423110962e-02 -6.308031082153320312e-02 -6.887646019458770752e-02
-2.115349285304546356e-03 -1.047912612557411194e-01 7.588865701109170914e-03 6.935644894838333130e-03 4.080352373421192169e-03 4.783471114933490753e-03
3.959727585315704346e-01 -1.492774188518524170e-01 -1.335428953170776367e-01 -1.108513027429580688e-01 -1.098477467894554138e-01 -1.356807202100753784e-01
-3.998346254229545593e-02 -3.754375874996185303e-02 -4.081120342016220093e-02 -2.949973568320274353e-02 -2.756888978183269501e-02 -3.380944207310676575e-02
7.644525170326232910e-02 -3.539315611124038696e-02 -3.861121460795402527e-02 1.311978977173566818e-02 -3.438893007114529610e-03 8.223229087889194489e-03
-2.685180632397532463e-03 -8.935599587857723236e-03 -9.670032188296318054e-03 -2.084726234897971153e-03 -3.610128536820411682e-02 -4.027219489216804504e-02
2.890618634410202503e-05 -3.921990096569061279e-02 -9.976112097501754761e-02 -1.050686985254287720e-01 -8.833823353052139282e-02 -6.927567068487405777e-03
5.206242669373750687e-03 3.695698396768420935e-04 6.606624927371740341e-03 8.793854154646396637e-03 -2.680831355974078178e-03 -4.361495841294527054e-03
-1.759821735322475433e-02 -1.883134804666042328e-02 -1.337419264018535614e-02 -9.152621030807495117e-03 -2.165267942473292351e-03 -4.479858558624982834e-03
3.409217298030853271e-02 3.315268084406852722e-02 1.702225580811500549e-02 3.025817684829235077e-02 2.725378796458244324e-02 3.192307054996490479e-02
7.487158756703138351e-03 -7.672080770134925842e-03 -6.424333434551954269e-03 -4.500386118888854980e-02 -4.523116350173950195e-02 -5.668523535132408142e-02
-2.860446460545063019e-02 -1.353663112968206406e-02 -1.836069114506244659e-02 -3.023507818579673767e-02 -8.356220088899135590e-03 -6.572650745511054993e-03
-1.851465320214629173e-03 -6.080250442028045654e-02 -2.420786209404468536e-02 -6.071390584111213684e-03 -2.793431980535387993e-03 4.326494876295328140e-03
-2.583928219974040985e-02 -2.454350143671035767e-02 -2.061720564961433411e-02 -3.689177567139267921e-03 5.054475041106343269e-04 1.948645524680614471e-02
-2.997007779777050018e-02 -4.839194193482398987e-02 -7.393139600753784180e-02 -7.505145668983459473e-02 1.121849492192268372e-01 7.281665503978729248e-02
1.384937670081853867e-03 2.824215451255440712e-03 -8.522733114659786224e-03 -1.762348785996437073e-02 1.130417338572442532e-03 -1.530724111944437027e-04
-6.846480537205934525e-03 -1.088329032063484192e-02 -3.219586983323097229e-02 -1.759362220764160156e-02 -1.152346935123205185e-02 -9.548090165480971336e-04
-6.494598835706710815e-02 -6.322409957647323608e-02 -9.647230058908462524e-02 -1.292024701833724976e-01 2.322766184806823730e-02 -4.738011583685874939e-02
1.781903207302093506e-03 -5.175983160734176636e-02 -2.151592969894409180e-01 -2.386111617088317871e-01 -2.081563579849898815e-04 1.263617537915706635e-03
-2.823258005082607269e-02 -3.905149921774864197e-02 -9.963724762201309204e-03 -1.800410822033882141e-02 -2.938373014330863953e-02 -3.720092773437500000e-02
-2.277318760752677917e-02 -3.507532924413681030e-02 -3.591593354940414429e-02 -2.839406579732894897e-02 -1.054906547069549561e-01 -6.458485126495361328e-02
7.381546776741743088e-03 1.959485560655593872e-02 2.197589538991451263e-02 3.964421898126602173e-02 5.445517972111701965e-02 3.154482692480087280e-02
-6.563713668583659455e-06 -7.397497538477182388e-03 -1.230319216847419739e-02 -1.530527602881193161e-03 -4.724784812424331903e-04 -1.055894419550895691e-02
-4.613809660077095032e-02 -5.845826119184494019e-02 -8.293216675519943237e-02 -1.377407163381576538e-01 6.309778243303298950e-02 3.666212037205696106e-02
-2.809908241033554077e-03 -1.917578745633363724e-03 -5.091290175914764404e-02 -5.922705307602882385e-02 -1.098447901313193142e-04 -2.102887723594903946e-03
-2.759386086836457253e-03 -2.693252637982368469e-03 -1.990699023008346558e-02 -1.461816672235727310e-02 -2.977924421429634094e-02 -2.088457904756069183e-02
-8.625004440546035767e-03 -1.927882432937622070e-02 -2.689823321998119354e-02 -2.354705892503261566e-02 1.347767468541860580e-02 -1.950324140489101410e-02
-4.252785816788673401e-03 -5.283067584969103336e-04 5.923039279878139496e-03 -1.862172409892082214e-02 4.358611535280942917e-03 -1.464155595749616623e-02
-1.456966437399387360e-02 2.839261433109641075e-03 -1.135365106165409088e-02 -2.450130321085453033e-02 2.424590988084673882e-03 7.283373270183801651e-03
-1.190228480845689774e-02 -4.417217150330543518e-02 -5.699928477406501770e-02 9.547313675284385681e-05 1.093861162662506104e-01 7.167882472276687622e-02
-3.013174422085285187e-02 -1.395133044570684433e-02 -4.330049082636833191e-02 -3.681425750255584717e-02 5.892270803451538086e-02 4.642841406166553497e-03
-1.957041174173355103e-01 4.880969971418380737e-02 2.882728911936283112e-02 6.352339684963226318e-02 5.788892880082130432e-02 -1.246712505817413330e-01
-7.283239066600799561e-02 -1.562374178320169449e-02 -2.887858636677265167e-02 -2.993626520037651062e-02 -2.514366805553436279e-02 -1.974391750991344452e-02
-9.311538189649581909e-02 -7.532744109630584717e-02 -7.413248717784881592e-02 5.215091258287429810e-02 6.200631707906723022e-02 2.724136039614677429e-02
-1.614236980676651001e-01 3.555998951196670532e-02 -1.940113864839076996e-02 2.916500903666019440e-02 -1.342276781797409058e-01 -1.091271042823791504e-01
-4.100430905818939209e-01 2.970760688185691833e-03 -1.821212703362107277e-03 1.343313604593276978e-03 1.203035935759544373e-03 -1.021389849483966827e-03
-7.106550782918930054e-02 -1.799448207020759583e-02 -2.924362383782863617e-02 -2.640784531831741333e-02 -8.947127498686313629e-03 -7.026255596429109573e-03
-4.532656818628311157e-02 -6.410097330808639526e-02 -7.020669430494308472e-02 -7.148329168558120728e-02 -6.883762776851654053e-02 -1.069886684417724609e-01
-4.414143785834312439e-02 -1.836431398987770081e-02 -1.995114050805568695e-02 4.076379910111427307e-02 -1.189337298274040222e-02 -1.794532500207424164e-02
-4.975458141416311264e-03 -8.851294405758380890e-03 -1.724786683917045593e-02 -1.671071350574493408e-02 -4.708371590822935104e-03 -3.320844378322362900e-03
-2.471839934587478638e-01 6.243923306465148926e-02 5.009324476122856140e-02 9.005654603242874146e-02 7.495982199907302856e-02 6.393601745367050171e-02
-4.339446127414703369e-02 2.924600616097450256e-02 -3.044283948838710785e-02 -1.129434071481227875e-02 4.418818862177431583e-04 -8.322945213876664639e-04
-4.382941499352455139e-02 -3.676005452871322632e-02 -3.581215813755989075e-02 -5.085967481136322021e-02 -8.677154779434204102e-03 -3.890687972307205200e-02
-4.578869417309761047e-02 -2.579548396170139313e-02 6.959212943911552429e-03 7.447513751685619354e-03 -9.402075782418251038e-03 9.468982927501201630e-03
-6.473325937986373901e-02 3.668141737580299377e-02 1.279453281313180923e-02 -1.787693053483963013e-02 -5.929106846451759338e-02 -6.785121560096740723e-02
-1.249224599450826645e-02 5.411315243691205978e-03 -8.599419146776199341e-03 -4.932782612740993500e-04 -7.212981116026639938e-03 -1.564994268119335175e-02
-1.386548131704330444e-01 7.391820847988128662e-02 5.173323675990104675e-02 -3.370141237974166870e-02 -5.891382694244384766e-02 1.865538954734802246e-02
-5.810921266674995422e-02 -2.423114329576492310e-02 -2.782225795090198517e-02 7.979787886142730713e-03 4.304962698370218277e-03 -2.063679881393909454e-02
-1.325516849756240845e-01 5.678394436836242676e-02 5.102511867880821228e-02 1.715964078903198242e-02 1.160013750195503235e-01 -6.771645694971084595e-02
-1.560485456138849258e-02 -3.142297035083174706e-03 -2.446444891393184662e-02 -4.733436740934848785e-03 -1.530182454735040665e-02 -1.788270100951194763e-02
-1.586187481880187988e-01 -5.993767082691192627e-02 -1.508708950132131577e-02 -4.184548929333686829e-02 1.591652929782867432e-01 1.623343974351882935e-01
-1.083031371235847473e-01 -3.218743484467267990e-03 -9.256290271878242493e-03 -1.412191987037658691e-02 -7.537030428647994995e-02 -6.323825567960739136e-02
-3.297885954380035400e-01 -4.354416579008102417e-02 -2.325051929801702499e-03 -1.744922250509262085e-03 -4.410458495840430260e-04 1.749657676555216312e-03
-3.313352540135383606e-02 2.590023726224899292e-02 4.771206062287092209e-03 -4.146414343267679214e-03 -2.647999860346317291e-02 -3.794969990849494934e-02
-4.616765305399894714e-02 -5.454692989587783813e-02 -8.952883630990982056e-02 -8.053151518106460571e-02 -3.945629298686981201e-02 -4.188322648406028748e-02
-2.676008827984333038e-02 3.535964339971542358e-02 3.948770463466644287e-02 -4.894701298326253891e-03 -2.508795447647571564e-02 -2.224032767117023468e-02
-2.644346561282873154e-03 -7.987580262124538422e-03 -7.887307554483413696e-03 -1.679432019591331482e-02 -9.246660396456718445e-03 -5.027816165238618851e-03
-1.142331734299659729e-01 -3.799208253622055054e-02 -4.524393007159233093e-02 -3.991067036986351013e-02 -6.317333318293094635e-04 -2.459969557821750641e-02
-6.279068440198898315e-02 1.550340279936790466e-02 2.999397693201899529e-03 -1.327561913058161736e-03 7.288190070539712906e-03 2.774636726826429367e-03
-2.783578820526599884e-03 -1.088093314319849014e-02 -1.767543493770062923e-03 4.893158562481403351e-03 7.756610866636037827e-03 -1.571422629058361053e-02
-3.353818878531455994e-02 4.325369745492935181e-02 4.716277867555618286e-02 8.656540885567665100e-03 2.614537626504898071e-02 2.085274830460548401e-02
-5.642690882086753845e-02 8.260761387646198273e-03 5.547241121530532837e-02 -3.653935715556144714e-02 -1.016015931963920593e-01 -1.412067860364913940e-01
-3.890210296958684921e-03 8.976328535936772823e-05 6.786467973142862320e-03 -2.096241107210516930e-03 3.982494585216045380e-03 -2.252241363748908043e-03
-1.276059150695800781e-01 1.308742910623550415e-01 9.599512070417404175e-02 -2.457501366734504700e-03 -3.667305409908294678e-02 3.762181475758552551e-02
-6.533818691968917847e-02 3.886102512478828430e-02 -6.431363988667726517e-03 3.208512067794799805e-02 2.288515307009220123e-02 -7.237373292446136475e-02
-1.453169733285903931e-01 6.437592208385467529e-02 2.375193685293197632e-02 1.079048961400985718e-02 5.753653869032859802e-02 -9.267089515924453735e-02
-2.146935835480690002e-02 -1.376172149321064353e-04 -1.930911466479301453e-02 -8.511587046086788177e-03 -4.195946268737316132e-03 -7.024070713669061661e-03
-9.113829582929611206e-02 -6.003515422344207764e-02 -1.263858377933502197e-02 -6.150306016206741333e-02 1.199858635663986206e-01 9.064451605081558228e-02
-1.231119707226753235e-01 -1.491210702806711197e-02 -3.535576909780502319e-02 -3.088329732418060303e-02 -7.644362002611160278e-02 -8.927726745605468750e-02
-3.771030902862548828e-01 -3.377170860767364502e-02 -2.109009772539138794e-03 -5.045519676059484482e-03 7.170406170189380646e-03 -3.140294225886464119e-03
-5.817051976919174194e-02 -9.502155706286430359e-03 -1.060405466705560684e-02 -1.976124569773674011e-02 -9.068966843187808990e-03 -1.384838856756687164e-02
-4.407414793968200684e-02 -7.634553313255310059e-02 -9.537401050329208374e-02 -6.721382588148117065e-02 -6.757879257202148438e-02 -8.857868611812591553e-02
-2.858891151845455170e-02 2.355126850306987762e-02 5.984661728143692017e-02 1.239109877496957779e-02 -3.040989302098751068e-02 -5.972679704427719116e-02
-1.060925051569938660e-02 -1.116546429693698883e-02 -1.729878038167953491e-02 -1.399313658475875854e-02 -4.015129990875720978e-03 -3.092002822086215019e-03
-1.526195704936981201e-01 -4.626095667481422424e-02 2.505265735089778900e-02 -2.269220422022044659e-04 1.143763028085231781e-02 4.281503614038228989e-03
-5.692302435636520386e-02 -6.887578638270497322e-04 1.645853929221630096e-02 -9.489553049206733704e-03 -3.724545007571578026e-03 -5.623891018331050873e-03
-5.330990999937057495e-03 -7.826428860425949097e-03 2.067564520984888077e-03 -3.749513765797019005e-03 9.406805969774723053e-03 -1.241884194314479828e-02
-3.920347616076469421e-02 3.107307851314544678e-02 4.819421097636222839e-03 -1.082343887537717819e-02 1.133095473051071167e-02 -8.476578630506992340e-03
-5.960853770375251770e-02 4.380966350436210632e-02 1.371455937623977661e-02 -3.572557866573333740e-02 -7.845018804073333740e-02 -5.847592651844024658e-02
-3.688170574605464935e-03 -4.785679746419191360e-03 3.881603246554732323e-03 2.231642138212919235e-03 -6.635326426476240158e-04 3.244962776079773903e-03
-1.631822884082794189e-01 1.315352767705917358e-01 9.055139869451522827e-02 5.306665785610675812e-03 -3.469124808907508850e-02 2.002829872071743011e-02
-5.366639420390129089e-02 1.172211114317178726e-02 -1.317313779145479202e-02 2.328155003488063812e-02 2.068401314318180084e-02 -3.956338763236999512e-02
1.289456896483898163e-02 5.491878464818000793e-02 1.832706481218338013e-02 2.525464072823524475e-02 3.924500197172164917e-03 -1.882351003587245941e-02
-4.609941504895687103e-03 -7.525662891566753387e-03 -3.537455573678016663e-02 -1.044012419879436493e-02 -4.750772193074226379e-02 -4.966768249869346619e-02
1.780183054506778717e-03 -3.452200326137244701e-04 -9.029747918248176575e-03 5.692254751920700073e-03 7.705305237323045731e-03 3.234846284613013268e-03
2.151241205865517259e-04 -6.914696842432022095e-02 -5.847591906785964966e-02 -4.923604801297187805e-02 -4.361806064844131470e-02 -4.358524084091186523e-02
-1.052822335623204708e-04 -8.781293034553527832e-02 -8.180700987577438354e-02 -7.937850430607795715e-03 2.839008346199989319e-03 1.791053800843656063e-03
3.180366158485412598e-01 -1.116903796792030334e-01 -1.093472689390182495e-01 -7.269274443387985229e-02 -1.040092557668685913e-01 -1.002619117498397827e-01
-3.318098932504653931e-02 -3.744266182184219360e-02 -2.846362441778182983e-02 -2.928901463747024536e-02 -1.887116208672523499e-02 -4.921094328165054321e-02
1.754861325025558472e-01 -2.465009875595569611e-02 -3.848253190517425537e-02 -8.656352758407592773e-03 -3.233878687024116516e-02 -5.998183786869049072e-02
-1.142394961789250374e-03 -3.300079843029379845e-03 -1.825602352619171143e-02 -6.508695892989635468e-03 -4.324469342827796936e-02 -4.951307177543640137e-02
-1.282717334106564522e-03 -9.754505939781665802e-03 -3.485677018761634827e-02 -3.857255354523658752e-02 -3.608926385641098022e-02 -6.694932281970977783e-02
-7.581691257655620575e-03 -4.560800734907388687e-03 1.207328634336590767e-03 -1.010050531476736069e-03 -7.167310686782002449e-04 -2.311894111335277557e-02
-3.359290584921836853e-02 -2.076235227286815643e-02 -1.928819343447685242e-02 -2.602433972060680389e-02 -6.643597967922687531e-03 -1.430900953710079193e-02
1.283233053982257843e-02 2.420622482895851135e-02 3.471898287534713745e-02 7.340127602219581604e-03 1.816059276461601257e-02 -3.781784558668732643e-03
1.897352375090122223e-02 -2.592196222394704819e-03 2.113538212142884731e-04 -2.846733666956424713e-03 -1.591305807232856750e-02 -2.870135754346847534e-02
-3.309886157512664795e-02 -2.500564418733119965e-02 -1.863452605903148651e-02 -1.184930466115474701e-02 -1.291778869926929474e-02 -6.522704381495714188e-03
-1.083487411960959435e-03 -2.507400698959827423e-02 -7.043632213026285172e-03 -2.908164635300636292e-02 -3.014208935201168060e-02 -4.979502875357866287e-03
-2.247041463851928711e-02 3.705468261614441872e-03 -5.644375924021005630e-03 -7.889498025178909302e-03 -1.174434460699558258e-02 -1.626800373196601868e-02
-9.058827161788940430e-02 -8.821262419223785400e-02 -4.221509397029876709e-02 1.245935186743736267e-01 1.048349067568778992e-01 9.846834838390350342e-02
-4.433720372617244720e-03 -4.474680870771408081e-03 2.883548382669687271e-03 -2.700343914330005646e-02 -4.159527644515037537e-02 -2.873374335467815399e-02
-6.051018461585044861e-02 -8.897051215171813965e-02 -2.280580438673496246e-02 5.272425245493650436e-03 7.072015199810266495e-03 1.876049675047397614e-02
-7.390064746141433716e-02 -9.643144905567169189e-02 -5.767197161912918091e-02 4.730572982225567102e-04 -2.801048569381237030e-03 -1.789510995149612427e-02
-1.274363100528717041e-01 -2.424650341272354126e-01 -1.804025471210479736e-01 -3.257352486252784729e-02 -5.124687682837247849e-03 -5.659809336066246033e-03
-4.210668802261352539e-02 -9.163087233901023865e-03 -7.550557609647512436e-03 -3.065956383943557739e-02 -4.292825236916542053e-02 -3.223224356770515442e-02
-4.795500636100769043e-02 -4.703885689377784729e-02 -4.991960152983665466e-02 -1.120982468128204346e-01 -7.117215543985366821e-02 -6.096928939223289490e-02
1.781732426024973392e-03 3.038934431970119476e-02 1.905046217143535614e-02 6.435728073120117188e-02 6.348292529582977295e-02 -4.299188964068889618e-03
-6.511671934276819229e-03 -3.476558777038007975e-04 -3.370793769136071205e-03 -1.237776782363653183e-02 -1.328956615179777145e-02 -1.423297077417373657e-02
-9.202400594949722290e-02 -1.035621315240859985e-01 -8.812909573316574097e-02 -6.098847370594739914e-03 1.827727444469928741e-02 1.281125843524932861e-02
-2.480056509375572205e-02 -7.055608183145523071e-02 -5.779200419783592224e-02 6.520526949316263199e-03 -1.193168759346008301e-02 -1.650013960897922516e-02
-4.246613942086696625e-03 -1.038638595491647720e-02 -2.413332834839820862e-02 -1.787873543798923492e-02 -5.187416914850473404e-03 -1.313457544893026352e-02
-1.901462487876415253e-02 -1.556112524121999741e-02 -1.955434679985046387e-02 2.645869180560112000e-02 -1.661338843405246735e-02 -6.443563383072614670e-03
2.827937249094247818e-03 -1.230530440807342529e-03 -2.647889405488967896e-02 1.793021522462368011e-02 -2.122849225997924805e-02 -2.050632610917091370e-02
-7.488723378628492355e-03 9.084534831345081329e-04 -1.105525344610214233e-02 1.504842936992645264e-02 3.228897694498300552e-03 3.451781813055276871e-03
-4.141865298151969910e-02 -6.132296100258827209e-02 1.646260358393192291e-02 5.410200729966163635e-02 5.458381026983261108e-02 3.583479207009077072e-03
-3.890725597739219666e-02 -4.273707419633865356e-02 -3.506110236048698425e-02 8.128075301647186279e-02 4.904048889875411987e-02 -2.147161960601806641e-02
-9.180243313312530518e-02 -8.038261532783508301e-02 8.495558798313140869e-02 4.248528555035591125e-02 4.030182212591171265e-02 2.676537027582526207e-03
-1.960420282557606697e-03 -8.331850171089172363e-03 -2.059482596814632416e-02 -1.842517033219337463e-02 -1.681449078023433685e-02 -1.339836884289979935e-02
-1.721870005130767822e-01 -1.209953725337982178e-01 3.051357343792915344e-02 6.653720047324895859e-03 1.090023219585418701e-01 1.353899240493774414e-01
-7.514888793230056763e-02 -8.137717843055725098e-02 -3.414440900087356567e-02 -7.864497601985931396e-02 -6.065470725297927856e-02 -5.808865651488304138e-02
-2.738191187381744385e-01 -2.080618441104888916e-01 -6.540661561302840710e-04 -1.196611789055168629e-03 2.356214827159419656e-05 -5.479874089360237122e-04
-4.313745722174644470e-02 -1.311971340328454971e-03 3.852403536438941956e-02 -1.683302834862843156e-04 -2.549513056874275208e-02 -3.089408017694950104e-02
-5.762503296136856079e-02 -7.541608810424804688e-02 -6.621067225933074951e-02 -4.602669179439544678e-02 -2.790866978466510773e-02 -3.970985114574432373e-02
-4.321934655308723450e-03 -1.041336636990308762e-02 3.660383075475692749e-02 1.551598589867353439e-02 -1.395039726048707962e-02 -1.854418590664863586e-02
-9.523751941742375493e-05 -4.093019664287567139e-02 -5.509208142757415771e-02 -2.006000466644763947e-02 -3.548903390765190125e-02 -2.031147852540016174e-02
-1.220839172601699829e-01 -1.244426518678665161e-01 3.485186770558357239e-02 2.479419670999050140e-02 4.946160688996315002e-02 1.745107397437095642e-02
-6.236135214567184448e-02 -4.490375146269798279e-02 2.740852534770965576e-02 -1.110873185098171234e-02 -2.209270931780338287e-02 -2.091409871354699135e-03
-2.453944832086563110e-02 -3.092812933027744293e-02 -5.010669305920600891e-02 -2.798911882564425468e-03 -1.128069497644901276e-02 -4.269944038242101669e-03
-5.202957428991794586e-03 -1.607615873217582703e-02 4.213185608386993408e-02 9.362212382256984711e-03 2.867591753602027893e-02 9.029320441186428070e-03
-2.801363356411457062e-03 -7.728445809334516525e-03 -1.639599166810512543e-02 -4.907306283712387085e-02 -4.031693190336227417e-02 -1.130724921822547913e-01
-1.713598519563674927e-02 -1.367863733321428299e-02 9.882936254143714905e-03 -7.515844423323869705e-03 1.908814068883657455e-03 -4.915305878967046738e-03
-1.004410162568092346e-01 -5.095098540186882019e-02 9.801731258630752563e-02 5.566219612956047058e-02 6.782556883990764618e-03 1.406941749155521393e-02
-6.070078536868095398e-02 -4.038132354617118835e-02 2.993764542043209076e-02 1.130057382397353649e-03 3.537183627486228943e-02 -4.154479876160621643e-02
-1.625670865178108215e-02 -1.051883306354284286e-02 2.729743719100952148e-03 -1.213255431503057480e-02 -1.304269419051706791e-03 -2.873853547498583794e-03
-4.261977504938840866e-03 -3.687037527561187744e-02 -2.302213013172149658e-02 -6.505874916911125183e-03 -2.191681973636150360e-02 -2.631156705319881439e-02
6.717112846672534943e-03 -4.072955250740051270e-02 -4.847628995776176453e-02 7.871513254940509796e-03 2.462463825941085815e-02 3.429450094699859619e-02
-5.528597161173820496e-03 -4.983437433838844299e-02 -3.445552662014961243e-02 -4.688831791281700134e-02 -4.760365560650825500e-02 -4.421761631965637207e-02
4.375203046947717667e-03 -1.322822570800781250e-01 -5.005199927836656570e-04 -5.692122038453817368e-03 -2.662374870851635933e-03 -6.352580385282635689e-04
2.677794992923736572e-01 -7.362336665391921997e-02 -9.152697026729583740e-02 -6.560182571411132812e-02 -6.292234361171722412e-02 -7.466952502727508545e-02
-2.978821657598018646e-02 -2.059457637369632721e-02 -4.314420372247695923e-02 -2.433848939836025238e-02 -2.326648123562335968e-02 -1.939693093299865723e-02
1.197540685534477234e-01 1.903620897792279720e-03 -5.761756002902984619e-02 -6.736896932125091553e-03 -9.380587376654148102e-03 -4.551293794065713882e-03
-1.415006234310567379e-03 -7.813817821443080902e-03 -2.037488669157028198e-02 -2.178616356104612350e-03 -2.829395607113838196e-02 -4.938023164868354797e-02
-2.978781005367636681e-03 -3.812247887253761292e-03 -9.623973071575164795e-02 -6.278714537620544434e-02 -4.973812028765678406e-02 -4.120838642120361328e-02
-3.140902146697044373e-03 -1.575056649744510651e-02 -2.135809976607561111e-03 -4.289011005312204361e-03 -9.606985375285148621e-03 -2.424950525164604187e-02
-4.805015027523040771e-02 -2.415980026125907898e-02 -2.673399075865745544e-02 -3.003712557256221771e-02 -2.407841011881828308e-02 -9.116267319768667221e-04
-3.392584156244993210e-03 -9.394282475113868713e-03 -3.396553685888648033e-03 -1.318535488098859787e-02 -2.368023060262203217e-02 -1.361702475696802139e-02
9.363244753330945969e-04 7.970834150910377502e-03 -1.472415961325168610e-02 9.684988297522068024e-03 -1.031847577542066574e-02 -3.342901542782783508e-02
-4.003719985485076904e-02 -5.756262224167585373e-03 -1.685526967048645020e-02 -1.557504385709762573e-02 -1.744364388287067413e-02 -2.247112803161144257e-03
-9.157839231193065643e-03 -3.940453380346298218e-02 -1.963724568486213684e-02 -2.754694409668445587e-02 -5.826560314744710922e-03 -5.718804895877838135e-03
-1.846193335950374603e-02 -1.998270163312554359e-03 -1.048456132411956787e-02 -5.007733125239610672e-03 -9.884867817163467407e-03 5.941616836935281754e-03
-8.078104257583618164e-02 -8.177678287029266357e-02 6.031171232461929321e-02 4.927036166191101074e-02 3.661331161856651306e-02 6.514540314674377441e-02
-1.204340625554323196e-02 -1.019098609685897827e-02 -6.887009367346763611e-03 -1.819330453872680664e-02 -1.195403188467025757e-02 -6.802218034863471985e-03
-1.320714801549911499e-01 -1.068675443530082703e-01 -2.118880860507488251e-02 3.246377781033515930e-02 1.354424059391021729e-01 1.684023290872573853e-01
-8.164070546627044678e-02 -1.081399768590927124e-01 8.556023240089416504e-03 -3.401343896985054016e-02 6.151206325739622116e-03 -8.018801361322402954e-02
-2.309526801109313965e-01 -2.097948789596557617e-01 -3.163188695907592773e-03 8.737245574593544006e-03 7.566599175333976746e-03 8.799399249255657196e-03
-2.808383665978908539e-02 1.582969538867473602e-02 8.273476734757423401e-03 -1.094905193895101547e-02 -1.634071953594684601e-02 -2.418341301381587982e-02
-7.101258635520935059e-02 -5.836346745491027832e-02 -8.522164821624755859e-02 -6.856065243482589722e-02 -4.732460528612136841e-02 -4.618078842759132385e-02
5.434036720544099808e-03 6.252746563404798508e-03 -2.158494433388113976e-03 -1.125886454246938229e-03 -3.312434768304228783e-03 1.001495169475674629e-03
-4.125025123357772827e-03 -1.930273137986660004e-02 -3.955624252557754517e-02 -2.406588569283485413e-02 -2.429001592099666595e-02 -1.568392850458621979e-02
-7.392654567956924438e-02 -1.346713900566101074e-01 -3.720648586750030518e-02 -4.295110329985618591e-02 -3.031378844752907753e-03 -2.378860861063003540e-02
-6.830771267414093018e-02 -5.024697259068489075e-02 3.392395377159118652e-02 -2.480349317193031311e-02 -1.868005655705928802e-02 -4.270038567483425140e-03
-4.626009613275527954e-03 -2.590516768395900726e-02 -3.531061857938766479e-02 -8.199550211429595947e-04 -5.271304398775100708e-03 -2.975270850583910942e-03
-2.970042638480663300e-03 -1.190829183906316757e-02 1.906220987439155579e-02 7.662651129066944122e-03 1.109208259731531143e-02 2.524648979306221008e-02
-1.623641001060605049e-03 1.947059645317494869e-03 -2.251258818432688713e-03 -5.577959492802619934e-02 -6.081331521272659302e-02 -1.139620244503021240e-01
-2.153201587498188019e-02 -1.204758975654840469e-02 7.713536266237497330e-03 -4.419961012899875641e-03 5.609784275293350220e-03 -1.775409909896552563e-03
-6.853333860635757446e-02 -6.902454048395156860e-02 9.156224131584167480e-02 2.017998322844505310e-02 -1.972961612045764923e-02 -1.610721088945865631e-02
-3.896421566605567932e-02 -3.937069699168205261e-02 5.667483061552047729e-02 -3.074372187256813049e-02 3.034665435552597046e-02 -5.458310991525650024e-02
-8.545278571546077728e-03 -8.917954750359058380e-03 -2.337819896638393402e-02 3.090454265475273132e-04 1.409615855664014816e-02 -2.871652133762836456e-02
-4.132236354053020477e-03 9.235364268533885479e-05 -7.411697879433631897e-03 -1.161306910216808319e-02 -5.741384625434875488e-02 -6.120604276657104492e-02
-2.894372679293155670e-02 -1.542851142585277557e-02 1.471026334911584854e-03 2.166513353586196899e-02 -2.310398034751415253e-02 -2.306480146944522858e-02
-2.855277620255947113e-02 -4.174803942441940308e-02 -5.496799945831298828e-02 -3.004002943634986877e-02 -1.109809428453445435e-01 -1.303675174713134766e-01
1.021007262170314789e-02 6.135647650808095932e-03 7.499961182475090027e-03 1.403549499809741974e-02 -1.478546261787414551e-01 -8.323802053928375244e-02
7.357066124677658081e-02 5.426018685102462769e-02 5.300341546535491943e-02 1.017714887857437134e-01 -2.105621397495269775e-01 -2.091297954320907593e-01
-2.578592300415039062e-02 -1.799052953720092773e-02 -2.432351559400558472e-02 -3.110145404934883118e-02 -1.962113380432128906e-02 -3.676164895296096802e-02
3.160182759165763855e-02 2.638020366430282593e-02 8.464533090591430664e-02 8.058223873376846313e-02 5.480802501551806927e-04 -1.396303921937942505e-01
-7.615496870130300522e-03 -2.319426275789737701e-04 1.003057928755879402e-03 -4.010476986877620220e-04 -3.810463473200798035e-02 -4.303569719195365906e-02
-3.253874555230140686e-02 -2.726779552176594734e-03 -1.049653813242912292e-02 2.055623568594455719e-02 -1.277269870042800903e-01 -1.311503648757934570e-01
-1.152178272604942322e-02 -3.132313117384910583e-02 -3.553971415385603905e-03 1.628469862043857574e-02 -4.219060018658638000e-02 -7.111964747309684753e-03
-4.377423971891403198e-02 -4.343287553638219833e-03 -2.739371545612812042e-02 -2.709249407052993774e-02 -5.237837880849838257e-02 -4.326577857136726379e-02
1.706069451756775379e-03 -1.239920593798160553e-02 -2.370662987232208252e-02 -2.744753472506999969e-02 -1.027796044945716858e-02 -9.285503067076206207e-03
-3.568123653531074524e-02 -3.346320614218711853e-02 1.426593773066997528e-02 4.819282889366149902e-02 -1.618979685008525848e-02 -3.696060180664062500e-02
6.288590375334024429e-03 2.118314849212765694e-03 -2.041727118194103241e-02 -2.231685630977153778e-02 -4.435468465089797974e-03 -3.656207770109176636e-02
-6.897095590829849243e-02 -5.883173644542694092e-02 -4.314593039453029633e-03 1.154013723134994507e-02 -1.486756466329097748e-02 -5.872813612222671509e-02
-1.964592188596725464e-02 -1.154636964201927185e-02 -4.124107584357261658e-02 -3.781748563051223755e-02 -8.764192461967468262e-03 -2.714393660426139832e-02
-6.435276567935943604e-02 -7.975850254297256470e-02 -1.010269075632095337e-01 1.104920431971549988e-01 7.313585281372070312e-02 5.687394365668296814e-02
-5.084602627903223038e-03 -4.595072008669376373e-03 -3.811968490481376648e-03 -1.982380449771881104e-02 -2.679522149264812469e-02 -2.565881237387657166e-02
-2.810399234294891357e-02 -6.414431333541870117e-02 -3.377354145050048828e-02 -1.789933885447680950e-03 -2.036115899682044983e-02 -2.783761173486709595e-02
-8.563973009586334229e-02 -8.590423315763473511e-02 -1.191915348172187805e-01 3.040022961795330048e-02 1.088461652398109436e-02 1.089750602841377258e-02
-5.491293221712112427e-02 -2.253284454345703125e-01 -2.627255618572235107e-01 -2.110976725816726685e-02 4.610939504345878959e-05 -1.886404585093259811e-03
-4.956999048590660095e-02 -2.015242911875247955e-02 -2.877186797559261322e-02 -4.003769531846046448e-02 -4.915281385183334351e-02 -1.776354759931564331e-02
-2.025899663567543030e-02 -4.226993769407272339e-02 -3.794989362359046936e-02 -9.766101837158203125e-02 -6.212947145104408264e-02 -5.966394767165184021e-02
-2.783926611300557852e-04 2.582925558090209961e-02 1.341614034026861191e-02 5.566772446036338806e-02 4.904297739267349243e-02 -1.025222428143024445e-02
-3.945809789001941681e-03 -3.263670718297362328e-03 -9.643202647566795349e-04 -1.273196889087557793e-03 -3.861846402287483215e-03 -3.583443816751241684e-03
-6.681164354085922241e-02 -8.577986061573028564e-02 -1.104917451739311218e-01 2.292692475020885468e-02 3.441266715526580811e-03 4.842565953731536865e-02
-2.467808686196804047e-02 -8.224502950906753540e-02 -5.917290598154067993e-02 2.688781730830669403e-02 3.288974612951278687e-02 2.577645005658268929e-03
-4.397412296384572983e-03 -5.704039707779884338e-03 -3.980413312092423439e-04 -1.081169769167900085e-02 -1.929450780153274536e-02 -2.665427327156066895e-02
-2.726838178932666779e-02 -2.210117131471633911e-02 -2.714162133634090424e-02 1.825353875756263733e-02 -1.854351162910461426e-02 1.742137130349874496e-03
-1.852463698014616966e-03 -5.473800469189882278e-03 -3.040956892073154449e-02 1.988417655229568481e-02 4.180499911308288574e-02 -3.861447796225547791e-02
6.820180569775402546e-04 2.368469722568988800e-06 -2.140604332089424133e-02 -5.766831804066896439e-03 -4.886353854089975357e-03 8.639977313578128815e-04
-2.473671734333038330e-02 -5.132927745580673218e-02 -2.801824174821376801e-02 9.549264609813690186e-02 5.209847912192344666e-02 -4.309559706598520279e-03
-3.222160413861274719e-02 -3.172354027628898621e-02 -5.393535271286964417e-02 6.595040857791900635e-02 -1.706563925836235285e-04 1.497411075979471207e-02
-1.278154551982879639e-01 -3.629680722951889038e-02 5.531083419919013977e-02 7.693313807249069214e-02 1.094560325145721436e-01 -2.998160012066364288e-02
-4.572005197405815125e-02 2.599434182047843933e-02 -1.159573160111904144e-02 -4.165694117546081543e-03 -7.457833271473646164e-03 -7.698501460254192352e-03
-7.306478917598724365e-02 -2.779719606041908264e-02 -3.982950747013092041e-02 -5.183452367782592773e-02 4.904981702566146851e-02 2.908333577215671539e-02
-1.523911058902740479e-01 -1.499083824455738068e-02 -1.917389221489429474e-03 -9.606530889868736267e-03 -6.938353925943374634e-02 -1.101289317011833191e-01
-3.863889575004577637e-01 -1.140544041991233826e-01 -7.214935612864792347e-04 -7.435705047100782394e-03 1.227953005582094193e-03 -7.919971831142902374e-03
-4.916076362133026123e-02 -3.086822293698787689e-02 -1.824874617159366608e-02 3.220453159883618355e-03 -2.161124162375926971e-02 -1.269654929637908936e-02
-3.526320680975914001e-02 -6.784729659557342529e-02 -9.861101955175399780e-02 -7.061570137739181519e-02 -4.920601844787597656e-02 -6.767873466014862061e-02
-3.067617863416671753e-02 5.296490155160427094e-03 2.120697498321533203e-02 5.468574166297912598e-02 -3.360332176089286804e-02 -5.145423114299774170e-02
-9.461079724133014679e-03 -3.101618960499763489e-03 -2.177751855924725533e-03 -1.282387506216764450e-02 -7.563345134258270264e-03 -9.342859499156475067e-03
-1.735510975122451782e-01 -4.265855252742767334e-02 1.602693460881710052e-02 3.443732485175132751e-02 4.237465560436248779e-02 1.827269978821277618e-02
-4.232038557529449463e-02 -1.571615412831306458e-02 2.841827925294637680e-03 -7.703467272222042084e-03 -7.355286274105310440e-03 -1.125640794634819031e-02
-2.796475775539875031e-02 7.843441562727093697e-04 -1.083964016288518906e-02 -1.176889427006244659e-02 2.623704494908452034e-03 -1.333281397819519043e-02
-4.462708905339241028e-02 -2.532079117372632027e-03 2.296353876590728760e-02 -9.248821064829826355e-03 1.088018529117107391e-02 -5.661698523908853531e-04
-7.592016458511352539e-02 2.545418031513690948e-02 4.466086626052856445e-02 -4.335963632911443710e-03 -4.686844348907470703e-02 -3.903548419475555420e-02
-8.972991490736603737e-04 -1.589796505868434906e-02 1.632913132198154926e-03 3.923424519598484039e-03 -3.803806379437446594e-03 -1.191706955432891846e-02
-1.731158792972564697e-01 1.009019687771797180e-01 1.359211951494216919e-01 5.062004551291465759e-02 -2.413647435605525970e-02 1.819899119436740875e-02
-4.480247944593429565e-02 6.374448072165250778e-03 -1.037342566996812820e-02 -4.854597616940736771e-03 -5.520611070096492767e-03 -4.319025576114654541e-02
-5.914372205734252930e-02 -8.910156786441802979e-03 -1.495476998388767242e-02 -2.206572517752647400e-02 -1.221057586371898651e-02 -1.426825206726789474e-02
-2.527120755985379219e-03 -2.942385151982307434e-03 -2.196314185857772827e-02 -2.727699466049671173e-02 -1.982981339097023010e-02 -5.787336081266403198e-02
-1.383175607770681381e-02 -1.483340631239116192e-03 -1.822871901094913483e-02 -2.058449387550354004e-02 -2.133191935718059540e-02 -1.474174670875072479e-02
-3.178743645548820496e-02 -4.203720018267631531e-03 -8.119662106037139893e-02 -9.022308140993118286e-02 -8.216432482004165649e-02 -4.739481210708618164e-02
1.099593378603458405e-02 9.479262866079807281e-03 -5.093381926417350769e-02 -6.367287039756774902e-02 -4.436962679028511047e-02 -6.695974152535200119e-03
1.675784736871719360e-01 2.306520193815231323e-01 -1.530146300792694092e-01 -1.264949589967727661e-01 -1.255589425563812256e-01 -1.249803304672241211e-01
-1.931760832667350769e-02 -2.290471829473972321e-02 -2.867367118597030640e-02 -2.612864598631858826e-02 -1.384944468736648560e-02 -2.113669738173484802e-02
7.318900525569915771e-02 8.075818419456481934e-02 -1.958484388887882233e-02 4.795732442289590836e-03 -5.955039523541927338e-03 -6.891625467687845230e-03
-3.495244309306144714e-03 2.168990205973386765e-03 -3.075960651040077209e-02 -2.215859852731227875e-02 -1.789215579628944397e-02 -5.299941077828407288e-02
7.567040738649666309e-04 5.594771821051836014e-03 -7.036820054054260254e-02 -9.269831329584121704e-02 -9.348793327808380127e-02 -9.141570329666137695e-02
-1.243432331830263138e-02 -6.850756704807281494e-03 -2.803894923999905586e-03 -1.022517215460538864e-03 -6.762908305972814560e-04 -3.636164125055074692e-03
-2.575322426855564117e-02 -2.149623073637485504e-02 -3.103115409612655640e-02 -2.201567962765693665e-02 -4.579176753759384155e-02 -4.793805535882711411e-03
-8.155290968716144562e-03 -6.689082831144332886e-03 1.481494959443807602e-02 1.543131005018949509e-02 4.439854063093662262e-03 4.622193053364753723e-03
1.013261545449495316e-02 1.328498497605323792e-02 6.909245625138282776e-03 5.659278016537427902e-03 1.244793646037578583e-02 -5.845618247985839844e-02
5.714240251109004021e-04 -1.036106050014495850e-02 -5.089051090180873871e-03 -3.135256469249725342e-02 -1.700047031044960022e-02 -6.442794576287269592e-03
-1.992280781269073486e-02 -1.058592554181814194e-02 -5.327002331614494324e-02 -3.760692477226257324e-02 -3.128299117088317871e-02 -2.038827538490295410e-02
-2.422184497117996216e-02 -3.858876600861549377e-02 -1.629765331745147705e-02 -2.111420966684818268e-02 -2.152649452909827232e-03 -1.815361715853214264e-02
-4.786659404635429382e-02 5.983625538647174835e-03 3.126074373722076416e-02 5.522066727280616760e-03 -1.508750393986701965e-02 -3.755860775709152222e-02
-7.458105683326721191e-03 -1.404397655278444290e-02 -5.989408865571022034e-02 -5.733086913824081421e-02 -2.346638776361942291e-02 -4.483981803059577942e-02
-3.516553714871406555e-02 1.180790644139051437e-02 -3.365813940763473511e-02 -2.824481343850493431e-03 -5.435717757791280746e-03 -8.217281661927700043e-03
-2.780313789844512939e-02 -5.247802473604679108e-03 -9.671594202518463135e-02 -9.245020151138305664e-02 -8.486998081207275391e-02 -6.184444203972816467e-02
3.350628167390823364e-02 3.581171855330467224e-02 -1.525629609823226929e-01 -3.017793409526348114e-02 -1.365274656563997269e-02 -8.356401696801185608e-03
2.321525663137435913e-01 2.119480669498443604e-01 -1.699934005737304688e-01 -1.313628852367401123e-01 -1.301661729812622070e-01 -1.357471197843551636e-01
-3.237258642911911011e-02 -4.137229546904563904e-02 -3.220473602414131165e-02 -3.826572746038436890e-02 -3.773144260048866272e-02 -3.883949667215347290e-02
8.778213709592819214e-02 7.610708475112915039e-02 -1.493468694388866425e-02 -4.082592949271202087e-02 -2.354882284998893738e-02 -6.071320548653602600e-02
-1.286471611820161343e-03 -1.337616471573710442e-03 -2.977353334426879883e-02 -3.214517235755920410e-02 -5.908980034291744232e-03 -5.875455588102340698e-02
-2.155814506113529205e-02 3.884027479216456413e-03 -7.354310899972915649e-02 -1.011623591184616089e-01 -9.575296938419342041e-02 -7.864733785390853882e-02
-2.281122654676437378e-02 -6.329406052827835083e-03 -1.931036077439785004e-02 -1.395502779632806778e-02 -1.425135880708694458e-02 -9.867232292890548706e-03
-3.629715368151664734e-02 -2.490383200347423553e-02 -2.901621162891387939e-02 -3.009764477610588074e-02 -2.675057761371135712e-02 -1.956439390778541565e-02
-8.305655792355537415e-03 -2.085074037313461304e-02 4.649622365832328796e-02 1.047543901950120926e-02 2.890509366989135742e-02 5.036916956305503845e-02
-2.972829341888427734e-02 -1.546601206064224243e-02 -3.075852245092391968e-02 -1.681271125562489033e-03 -3.046028688549995422e-02 -4.998558014631271362e-02
-2.919602766633033752e-02 -2.768091484904289246e-02 -1.351942121982574463e-02 -1.767042651772499084e-02 -1.624776609241962433e-02 -5.554853007197380066e-03
-1.164478622376918793e-02 -2.586612291634082794e-02 -6.763584911823272705e-02 -2.688238583505153656e-02 -3.539732843637466431e-02 -1.378623209893703461e-02
-3.451895341277122498e-02 -1.582180149853229523e-02 -1.310459803789854050e-02 -1.341224554926156998e-02 -1.953588798642158508e-02 -2.342527545988559723e-02
1.008839160203933716e-02 -3.655615448951721191e-02 -2.025403641164302826e-02 1.076740678399801254e-03 1.208201167173683643e-03 -4.506774246692657471e-02
-2.089933119714260101e-02 -2.928725630044937134e-02 -2.303241565823554993e-02 -3.217675164341926575e-02 -5.523651465773582458e-02 -7.184267789125442505e-02
-2.496385201811790466e-02 -2.270124852657318115e-02 -1.993350870907306671e-02 7.212975528091192245e-03 -2.326989360153675079e-02 -2.425298094749450684e-02
-5.264199525117874146e-02 -2.774467505514621735e-02 -3.507434576749801636e-02 -3.441464155912399292e-02 -1.137319505214691162e-01 -1.337057501077651978e-01
2.590345218777656555e-02 1.602393761277198792e-02 2.605856023728847504e-02 3.158136829733848572e-02 -1.302411109209060669e-01 -7.085099071264266968e-02
6.839270889759063721e-02 3.849580138921737671e-02 1.032626703381538391e-01 1.027056947350502014e-01 -2.272873818874359131e-01 -2.292982190847396851e-01
-3.445779904723167419e-02 -2.171077765524387360e-02 -2.818165160715579987e-02 -3.132300451397895813e-02 -2.612819150090217590e-02 -3.952591493725776672e-02
5.106979049742221832e-03 2.034607576206326485e-03 7.458218187093734741e-02 7.478399574756622314e-02 -3.176782652735710144e-02 -7.029864192008972168e-02
-8.267530240118503571e-03 -1.028205850161612034e-03 -6.973722949624061584e-03 -2.693072659894824028e-03 -3.457171097397804260e-02 -5.176423117518424988e-02
-4.090112075209617615e-02 -2.344399131834506989e-02 1.439826656132936478e-02 2.608786150813102722e-02 -1.559991836547851562e-01 -1.534088104963302612e-01
-2.649203874170780182e-02 -2.695031277835369110e-02 -6.024474743753671646e-03 3.466358408331871033e-02 -2.999070286750793457e-02 -1.693839579820632935e-02
-5.649907141923904419e-02 -2.165844663977622986e-02 -3.665132448077201843e-02 -2.734707295894622803e-02 -4.734972119331359863e-02 -4.312283918261528015e-02
-2.006642171181738377e-04 -2.056258358061313629e-02 -1.936683245003223419e-02 -8.406071923673152924e-03 4.948575049638748169e-03 -5.126764997839927673e-03
-3.949958831071853638e-02 -4.183473438024520874e-02 -1.091218367218971252e-02 1.125950459390878677e-02 -2.510097064077854156e-02 -4.485004395246505737e-02
-4.651159979403018951e-03 -3.031072951853275299e-02 -1.927642710506916046e-02 -3.631977364420890808e-02 -8.493862114846706390e-03 -4.573772102594375610e-02
-4.725168272852897644e-02 -5.607028305530548096e-02 2.400078438222408295e-02 3.050162689760327339e-03 -5.764661729335784912e-02 -6.194959580898284912e-02
-1.835113205015659332e-02 -2.076701074838638306e-02 -4.645923525094985962e-02 -3.162581846117973328e-02 -2.124170027673244476e-02 -3.484081104397773743e-02
-4.780155792832374573e-02 1.280564814805984497e-03 1.201076712459325790e-02 -2.653391286730766296e-02 -1.571148261427879333e-02 -3.219611570239067078e-02
-4.540590569376945496e-03 -5.449865944683551788e-03 -3.451409935951232910e-02 -5.385056510567665100e-02 -1.462478842586278915e-02 -5.921367928385734558e-02
-2.328695170581340790e-02 -6.442320533096790314e-03 -3.301005065441131592e-02 -2.784498967230319977e-02 -1.131383050233125687e-02 -7.344615180045366287e-03
-2.853611856698989868e-02 -9.963236749172210693e-03 -9.073935449123382568e-02 -7.998681068420410156e-02 -7.101107388734817505e-02 -5.527547374367713928e-02
1.698844879865646362e-02 1.645534671843051910e-02 -1.745190620422363281e-01 -3.189851716160774231e-02 -9.340897202491760254e-03 -6.012992933392524719e-03
1.466002613306045532e-01 1.920527517795562744e-01 -1.013690307736396790e-01 -1.384239345788955688e-01 -1.251172721385955811e-01 -1.336632519960403442e-01
-1.917362399399280548e-02 -2.168801613152027130e-02 -1.347950287163257599e-02 -2.128918282687664032e-02 -2.916850522160530090e-02 -2.230175212025642395e-02
8.941055089235305786e-02 7.687736302614212036e-02 -3.143973276019096375e-02 -4.547036439180374146e-02 -4.066636413335800171e-02 -5.561698973178863525e-02
-1.426545437425374985e-03 -9.971870109438896179e-03 -3.950366005301475525e-02 -2.650849707424640656e-02 -2.110067941248416901e-02 -6.038284674286842346e-02
-1.576053164899349213e-02 8.797030895948410034e-03 -5.120560899376869202e-02 -8.004880696535110474e-02 -1.031448394060134888e-01 -9.275372326374053955e-02
-2.366377413272857666e-02 7.400659844279289246e-03 -1.382191199809312820e-02 6.231510778889060020e-04 -1.604225300252437592e-02 -1.572282798588275909e-02
-4.053904116153717041e-02 -4.796579852700233459e-02 -3.325433284044265747e-02 -3.985934704542160034e-02 -4.790363088250160217e-02 -1.261552795767784119e-02
3.950060904026031494e-02 7.301498670130968094e-03 1.720572635531425476e-02 -1.275383122265338898e-02 -1.275266148149967194e-02 -8.545849472284317017e-03
3.104733303189277649e-02 5.092360824346542358e-02 1.076633925549685955e-03 9.075499139726161957e-03 -4.854318220168352127e-03 -7.491829991340637207e-02
-7.850236259400844574e-03 -3.182976320385932922e-02 -1.366699114441871643e-02 -1.184255909174680710e-02 -1.820244453847408295e-02 -7.650380488485097885e-03
-1.111740013584494591e-03 -1.383468229323625565e-02 -3.605319187045097351e-02 -4.251095652580261230e-02 -1.200041640549898148e-02 -2.078522555530071259e-02
-3.522847220301628113e-02 -2.083622105419635773e-02 -2.066386863589286804e-02 -1.759862899780273438e-02 -4.522357136011123657e-03 -1.099495869129896164e-02
-4.162561893463134766e-02 -4.822076857089996338e-02 2.149966731667518616e-02 -8.433435112237930298e-03 -3.900679945945739746e-02 -1.763136498630046844e-02
-1.882687211036682129e-02 -1.276740338653326035e-03 -1.339313946664333344e-02 -7.802005857229232788e-02 -7.923428714275360107e-02 -5.094372108578681946e-02
-3.000076673924922943e-02 -1.099859364330768585e-02 7.866201922297477722e-03 -5.528170615434646606e-02 -3.620168939232826233e-02 -3.161885216832160950e-02
-3.061019442975521088e-02 -5.454008281230926514e-02 -1.788876019418239594e-02 -1.199930980801582336e-01 -1.139669269323348999e-01 -7.225819677114486694e-02
3.752979263663291931e-02 3.305777162313461304e-02 4.484730213880538940e-02 -1.325198411941528320e-01 -8.655590564012527466e-02 -2.706954628229141235e-02
1.259842664003372192e-01 1.497740447521209717e-01 2.008591741323471069e-01 -2.129162549972534180e-01 -1.964471936225891113e-01 -1.603800803422927856e-01
-3.623835369944572449e-02 -3.188255801796913147e-02 -3.694109991192817688e-02 -3.912969678640365601e-02 -2.047000080347061157e-02 -4.116091132164001465e-02
2.855636551976203918e-02 7.602501660585403442e-02 8.536709100008010864e-02 -3.241827338933944702e-02 -9.355402737855911255e-02 -1.309597026556730270e-02
-2.244507893919944763e-03 -4.432839807122945786e-03 -4.479322815313935280e-04 -3.008398599922657013e-02 -4.722822830080986023e-02 -5.791763961315155029e-02
-4.569049552083015442e-02 -1.048041973263025284e-02 5.911321379244327545e-03 -1.163700520992279053e-01 -1.367932409048080444e-01 -1.142294481396675110e-01
-3.932931274175643921e-02 -2.829396864399313927e-03 1.921566575765609741e-02 -3.317124024033546448e-02 -2.716148272156715393e-02 -2.203180454671382904e-02
-4.545906186103820801e-02 -2.977487817406654358e-02 -3.397521376609802246e-02 -4.846174269914627075e-02 -2.770898677408695221e-02 -5.027653276920318604e-02
-7.665102835744619370e-03 -3.428985364735126495e-03 -1.959325186908245087e-02 -1.474648807197809219e-02 -2.312480704858899117e-03 1.012154622003436089e-03
-3.160463646054267883e-02 -1.338153518736362457e-02 -5.657713860273361206e-03 -2.940433844923973083e-02 -2.582698361948132515e-03 -5.864651501178741455e-02
-1.252341922372579575e-02 -3.191300854086875916e-02 -4.642623290419578552e-02 -2.100046351552009583e-02 -3.706073760986328125e-02 -3.590001910924911499e-02
-2.870690822601318359e-02 -1.683365181088447571e-02 -4.020965099334716797e-02 -6.453776359558105469e-02 -7.982111722230911255e-02 -1.022932585328817368e-02
-1.968267373740673065e-02 -3.229798004031181335e-02 -3.901184350252151489e-02 -2.645559236407279968e-02 -3.189555555582046509e-02 2.604907751083374023e-02
-6.008454412221908569e-02 -1.107325777411460876e-02 1.713971048593521118e-02 2.159187942743301392e-02 2.339756756555289030e-04 -4.657802358269691467e-02
-2.176826819777488708e-02 -1.039650291204452515e-02 -2.094772830605506897e-02 -3.608136624097824097e-02 -5.799120664596557617e-02 -2.966864034533500671e-02
-3.934801206924021244e-04 -5.089136306196451187e-03 5.760247353464365005e-03 -3.843677043914794922e-02 -6.184750702232122421e-03 -8.569220080971717834e-03
-2.729364857077598572e-02 -2.691027335822582245e-02 -3.255596011877059937e-02 -1.094256117939949036e-01 -1.149735897779464722e-01 -1.109237372875213623e-01
2.393292635679244995e-02 1.807420141994953156e-02 2.956251800060272217e-02 -8.184679597616195679e-02 -6.018283590674400330e-02 -1.579386182129383087e-02
1.289261281490325928e-01 1.261172145605087280e-01 1.495921015739440918e-01 -1.734893769025802612e-01 -1.736752837896347046e-01 -1.738138943910598755e-01
-2.846998721361160278e-02 -3.443913906812667847e-02 -4.079969227313995361e-02 -3.127529099583625793e-02 -2.482157386839389801e-02 -3.709528967738151550e-02
9.428937919437885284e-03 4.570855945348739624e-02 7.200346142053604126e-02 -3.596884012222290039e-02 -1.733390614390373230e-02 -4.546711966395378113e-02
-3.963439725339412689e-03 -3.591179265640676022e-04 -3.578782314434647560e-03 -2.039201371371746063e-02 -4.056642204523086548e-02 -4.126590490341186523e-02
-2.429827675223350525e-02 8.515123627148568630e-04 1.200538221746683121e-02 -8.597022294998168945e-02 -1.152803227305412292e-01 -1.278475075960159302e-01
-3.290310129523277283e-02 1.560366596095263958e-03 2.144020237028598785e-02 -2.323546446859836578e-02 -1.163769979029893875e-02 -7.396987639367580414e-03
-3.612592816352844238e-02 -3.916128352284431458e-02 -3.618464246392250061e-02 -3.309654071927070618e-02 -3.317745402455329895e-02 -5.243315547704696655e-02
-2.034954912960529327e-02 -3.208804130554199219e-02 -1.967522315680980682e-02 -1.892720465548336506e-03 1.379614113830029964e-03 2.009410038590431213e-02
-3.425433859229087830e-02 -2.347053401172161102e-02 1.701276749372482300e-02 -3.480840474367141724e-02 1.278163585811853409e-02 -5.199465528130531311e-02
-3.380502387881278992e-02 -1.185106206685304642e-02 -2.716033160686492920e-02 3.900099312886595726e-03 -3.078308515250682831e-02 -2.615800686180591583e-02
-4.527900740504264832e-02 1.724556647241115570e-02 2.473727427423000336e-02 -5.085892975330352783e-02 -5.343117937445640564e-02 -4.968349635601043701e-02
-1.788104884326457977e-02 -2.096667140722274780e-02 -2.255718223750591278e-02 -4.084920883178710938e-02 1.179164275527000427e-03 -1.846018061041831970e-02
-1.780728995800018311e-02 -3.026475198566913605e-02 -2.531230263411998749e-02 -3.188827261328697205e-02 -9.708148427307605743e-03 -1.186673063784837723e-02
-1.862685568630695343e-02 -3.372136875987052917e-02 -1.685797236859798431e-02 -2.840024977922439575e-02 -2.652332931756973267e-02 -3.783383220434188843e-02
-3.330565989017486572e-02 -2.188031375408172607e-02 -2.561621740460395813e-02 2.877112710848450661e-03 5.377084948122501373e-03 2.339737303555011749e-02
-3.695693984627723694e-02 -3.714982047677040100e-02 -4.697590693831443787e-02 -5.877157673239707947e-02 -5.796639621257781982e-02 -7.505726814270019531e-02
-9.036960080265998840e-03 -1.282746493816375732e-01 -1.275706291198730469e-01 2.524804323911666870e-02 2.415866777300834656e-02 2.293382585048675537e-02
2.035296112298965454e-01 -8.086679875850677490e-02 -5.059639737010002136e-02 -5.140493437647819519e-02 -5.369745194911956787e-02 -6.355640292167663574e-02
-3.020677343010902405e-02 -3.681724146008491516e-02 -3.481683507561683655e-02 -5.441816523671150208e-02 -3.453643620014190674e-02 -3.348070755600929260e-02
7.000747136771678925e-03 1.275399327278137207e-02 4.491870850324630737e-02 4.964829236268997192e-02 2.261736243963241577e-02 1.630992628633975983e-02
-8.383022621273994446e-03 1.044122967869043350e-03 4.561523965094238520e-04 -2.104721032083034515e-02 -1.989147812128067017e-02 -1.790975220501422882e-02
-3.023240342736244202e-02 -4.628923162817955017e-02 -3.888949379324913025e-02 -8.555138111114501953e-02 -3.831656649708747864e-02 -3.834829479455947876e-02
-3.182142600417137146e-02 -5.593744292855262756e-02 1.441125664860010147e-02 2.599151991307735443e-02 -1.861754991114139557e-02 -3.140805289149284363e-02
-2.957465127110481262e-02 -4.189485311508178711e-02 -3.373714163899421692e-02 -4.153505712747573853e-02 -7.524054963141679764e-03 -3.359196707606315613e-03
-8.103690110146999359e-03 6.504998076707124710e-03 1.789648667909204960e-03 -1.461627613753080368e-02 -1.592574082314968109e-02 -3.931686282157897949e-03
-8.138758130371570587e-04 -1.577278599143028259e-03 -3.293575346469879150e-02 -4.143434111028909683e-03 -9.139517694711685181e-02 -4.244681820273399353e-02
-1.521528046578168869e-02 -2.436038851737976074e-02 -3.167518600821495056e-02 -2.383299730718135834e-02 -1.564542204141616821e-02 -3.687043115496635437e-02
-1.004363223910331726e-02 -2.229950390756130219e-02 -3.871398419141769409e-02 -3.250566869974136353e-02 -7.505385205149650574e-03 -1.775564625859260559e-02
-5.182504653930664062e-03 -1.491152215749025345e-02 -1.250954996794462204e-02 -2.906854450702667236e-02 1.512955036014318466e-02 2.012092852964997292e-03
-9.631328284740447998e-02 -3.699044138193130493e-02 4.861744865775108337e-02 3.216917067766189575e-02 4.105225950479507446e-02 8.212722837924957275e-03
-8.815030567348003387e-03 -2.637985162436962128e-02 -6.046122871339321136e-03 -1.818799041211605072e-02 -2.314215153455734253e-02 -1.625973731279373169e-02
-1.186799630522727966e-01 -6.940350681543350220e-02 -5.621611326932907104e-02 3.509581089019775391e-02 1.441034376621246338e-01 1.794820576906204224e-01
-1.068827062845230103e-01 -9.210131317377090454e-02 -1.416907180100679398e-03 -2.126867882907390594e-02 -1.774772442877292633e-02 -9.361583739519119263e-02
-2.556317746639251709e-01 -2.003812491893768311e-01 -6.030790507793426514e-03 -4.946509376168251038e-03 2.461187075823545456e-03 1.226916909217834473e-03
-2.192167751491069794e-02 -2.107334695756435394e-02 1.547723077237606049e-02 -8.041598834097385406e-03 -2.264773659408092499e-02 -5.301390960812568665e-02
-5.784501135349273682e-02 -5.677491426467895508e-02 -7.097909599542617798e-02 -5.079135671257972717e-02 -3.198929876089096069e-02 -6.049015745520591736e-02
-1.181163173168897629e-02 1.372180320322513580e-02 4.300396423786878586e-03 2.165199629962444305e-02 3.389338403940200806e-02 -1.313975267112255096e-02
-2.554523292928934097e-03 -2.297069149790331721e-04 -1.612589694559574127e-02 -1.076706219464540482e-02 -1.398569997400045395e-02 -1.711847260594367981e-02
-9.998170286417007446e-02 -1.064768433570861816e-01 -4.512370005249977112e-02 3.732760960701853037e-04 -2.680280432105064392e-02 -5.178105458617210388e-02
-3.631544113159179688e-02 -3.471493721008300781e-02 -1.236046757549047470e-02 -5.535809323191642761e-03 -9.529913775622844696e-03 -1.622459478676319122e-02
-2.619622647762298584e-02 -2.073461003601551056e-02 -3.526213392615318298e-02 -6.815348751842975616e-05 -1.985805109143257141e-02 1.225027837790548801e-03
-3.239190950989723206e-02 -1.004196796566247940e-02 4.315413162112236023e-02 2.809180505573749542e-02 2.297514118254184723e-02 1.521044690161943436e-02
-1.634387066587805748e-03 -3.041565651074051857e-03 -1.081971358507871628e-02 -8.145419508218765259e-02 -1.197830513119697571e-01 -1.444788575172424316e-01
-1.778280362486839294e-02 -1.176507119089365005e-02 -1.224224735051393509e-02 2.769127488136291504e-03 -1.778567396104335785e-02 -2.954652300104498863e-03
-8.067171275615692139e-02 -7.297827303409576416e-02 1.023991331458091736e-01 3.142524883151054382e-02 -1.626279018819332123e-02 -3.734872117638587952e-02
-5.778682604432106018e-02 -3.075884468853473663e-02 3.238815814256668091e-02 3.974076360464096069e-03 1.102837175130844116e-02 -3.293855860829353333e-02
-1.190406735986471176e-02 -2.147370949387550354e-02 -1.953364722430706024e-02 -1.542750373482704163e-02 -4.126844927668571472e-03 -1.901781000196933746e-02
-2.120111137628555298e-02 -3.108032792806625366e-02 -2.882082574069499969e-02 -3.325288370251655579e-02 -3.525121510028839111e-02 -4.135942459106445312e-02
-5.054145585745573044e-03 -1.206089975312352180e-03 -4.204528406262397766e-03 5.699738860130310059e-03 4.244710318744182587e-03 5.770647840108722448e-05
-2.165316045284271240e-02 -4.385657235980033875e-02 -4.145101830363273621e-02 -6.762933731079101562e-02 -4.512025788426399231e-02 -6.286283582448959351e-02
-3.060158109292387962e-03 -6.793707609176635742e-02 -6.686022132635116577e-02 3.832434862852096558e-02 3.447798639535903931e-02 3.321763873100280762e-02
2.747965157032012939e-01 -1.256432831287384033e-01 -9.127190709114074707e-02 -5.837611109018325806e-02 -5.050869286060333252e-02 -9.580695629119873047e-02
-3.682313486933708191e-02 -3.377950936555862427e-02 -3.643710911273956299e-02 -4.229705780744552612e-02 -3.373989090323448181e-02 -3.709469363093376160e-02
7.175303995609283447e-03 9.511248208582401276e-04 -2.122894115746021271e-02 -1.906653866171836853e-02 -4.448347538709640503e-02 -6.388442963361740112e-02
-7.760501001030206680e-03 -9.382462128996849060e-03 -6.322187371551990509e-03 -8.206275291740894318e-03 -1.439458224922418594e-02 -1.995193585753440857e-02
-1.256034127436578274e-03 -6.407649070024490356e-02 -7.812146842479705811e-02 -5.279903113842010498e-02 -4.657500237226486206e-02 -4.555930197238922119e-02
-1.740623638033866882e-02 -3.288573771715164185e-02 1.264405529946088791e-02 1.968343928456306458e-02 -6.924598943442106247e-03 -4.422791302204132080e-02
-2.463894337415695190e-02 -2.936312742531299591e-02 -2.824873477220535278e-02 -3.273729979991912842e-02 -6.923470646142959595e-03 -4.865171387791633606e-03
2.802567090839147568e-03 -7.045472972095012665e-03 1.882031001150608063e-02 -9.312744368799030781e-04 5.947383120656013489e-03 2.247369848191738129e-02
-5.937837995588779449e-03 -1.613216474652290344e-02 -1.144952513277530670e-02 -1.778869517147541046e-02 -4.614162072539329529e-02 -4.733282327651977539e-02
-2.088177204132080078e-02 -1.657482795417308807e-02 -2.519288286566734314e-02 -2.971540763974189758e-02 -2.371440641582012177e-02 -3.697233647108078003e-02
-6.626991555094718933e-03 -2.917933836579322815e-02 -2.610759437084197998e-02 -2.877243421971797943e-02 -2.637652494013309479e-02 -3.288311883807182312e-03
-5.618901457637548447e-03 -4.282120149582624435e-03 -2.047393657267093658e-02 -2.512749284505844116e-02 -4.854288708884268999e-04 -2.552811987698078156e-02
-1.028996184468269348e-01 8.590221405029296875e-02 2.948326803743839264e-02 1.731686294078826904e-02 9.799273312091827393e-02 -8.579768985509872437e-02
-2.329198876395821571e-03 -4.640603438019752502e-04 -6.324342451989650726e-03 2.873787307180464268e-04 -1.222375035285949707e-02 4.903954686596989632e-05
-1.654756516218185425e-01 -5.699893832206726074e-02 -2.864764444530010223e-02 5.682455957867205143e-05 1.287988275289535522e-01 1.367089003324508667e-01
-8.085175603628158569e-02 -2.409297507256269455e-03 -2.015949040651321411e-02 -3.211738541722297668e-02 -6.966837495565414429e-02 -5.743508413434028625e-02
-2.982960939407348633e-01 1.168063376098871231e-03 -3.458070568740367889e-05 -1.189554226584732533e-03 -1.617673318833112717e-03 -6.056540645658969879e-03
-3.363945707678794861e-02 2.936172997578978539e-03 6.186895072460174561e-03 -1.023673452436923981e-02 2.138583920896053314e-02 -4.453586414456367493e-02
-3.365472331643104553e-02 -5.741241201758384705e-02 -7.088636606931686401e-02 -6.193979457020759583e-02 -3.903177753090858459e-02 -3.988850489258766174e-02
-9.725903160870075226e-03 1.227340940386056900e-02 8.462645113468170166e-03 2.782470779493451118e-03 -1.629711501300334930e-02 -1.651390269398689270e-02
-6.613682955503463745e-03 -8.764793165028095245e-03 -1.817453652620315552e-02 -1.674000546336174011e-02 -1.098814699798822403e-02 -9.297796525061130524e-03
-1.467192620038986206e-01 -9.463104419410228729e-03 -2.493657357990741730e-02 -3.749058023095130920e-02 -7.832134142518043518e-03 -2.585341781377792358e-02
-5.070259422063827515e-02 1.083626179024577141e-03 2.087673917412757874e-02 -1.430891174823045731e-02 -5.538660101592540741e-03 -5.541130900382995605e-03
-6.508341903099790215e-05 -1.717557013034820557e-02 -1.387532334774732590e-03 1.165603753179311752e-04 1.329576130956411362e-03 -1.392232906073331833e-02
-4.120970889925956726e-02 2.057741582393646240e-02 5.973862111568450928e-02 2.007722482085227966e-02 3.856929019093513489e-02 5.002821609377861023e-02
-4.691260680556297302e-02 1.199155580252408981e-02 3.402749821543693542e-02 -4.611505195498466492e-02 -9.668152779340744019e-02 -1.417893618345260620e-01
-9.731004014611244202e-03 1.676946762017905712e-03 -3.479793434962630272e-03 -2.665328327566385269e-03 1.384863536804914474e-02 -1.099189184606075287e-02
-1.357161998748779297e-01 1.406295001506805420e-01 6.283677369356155396e-02 1.516689173877239227e-02 -8.122199214994907379e-03 -7.910980843007564545e-03
-7.234393805265426636e-02 6.100633740425109863e-02 1.001779746729880571e-04 4.509315267205238342e-02 1.776525937020778656e-02 -7.499293982982635498e-02
-9.341134876012802124e-02 -9.420996904373168945e-02 -9.826792031526565552e-02 1.354556828737258911e-01 7.107491791248321533e-02 8.937533199787139893e-02
-3.501934930682182312e-03 -2.061193622648715973e-02 -1.350403018295764923e-02 -3.958500176668167114e-02 -3.624266758561134338e-02 -3.278232365846633911e-02
-2.058654651045799255e-02 -4.817255586385726929e-02 -4.991912469267845154e-02 -2.407948113977909088e-02 -4.462011530995368958e-02 -3.374545276165008545e-02
-6.895787268877029419e-02 -1.032353192567825317e-01 -1.694790571928024292e-01 7.155495136976242065e-02 2.623126842081546783e-03 2.968398295342922211e-02
-1.134004518389701843e-01 -2.668082714080810547e-01 -2.866660654544830322e-01 -1.092439284548163414e-03 -9.090047096833586693e-04 -1.406489405781030655e-03
-7.373063266277313232e-02 -3.761292994022369385e-02 -4.077670350670814514e-02 -1.478247530758380890e-02 -3.104978241026401520e-02 -4.419958218932151794e-03
-4.439474642276763916e-02 -5.876995623111724854e-02 -2.666660025715827942e-02 -1.278096437454223633e-01 -7.668160647153854370e-02 -7.009685784578323364e-02
7.324522361159324646e-03 1.802020333707332611e-02 1.424472965300083160e-02 4.728050529956817627e-02 1.142829470336437225e-02 -1.640444993972778320e-02
-1.603069715201854706e-02 -1.688994001597166061e-03 -5.214496050029993057e-03 -1.442734617739915848e-03 -5.160914734005928040e-04 -9.901863522827625275e-03
-8.218221366405487061e-02 -1.044896319508552551e-01 -1.334974020719528198e-01 5.982540920376777649e-02 7.300423830747604370e-02 8.307818323373794556e-02
-1.020591612905263901e-02 -5.403954163193702698e-02 -7.739285379648208618e-02 9.532100521028041840e-03 6.119703873991966248e-03 -9.811399504542350769e-03
-1.336319744586944580e-02 -2.442569658160209656e-02 -2.812806330621242523e-02 -4.095018282532691956e-02 -5.032104998826980591e-02 -4.694237932562828064e-02
-3.771354258060455322e-02 -2.782682329416275024e-02 -3.645082935690879822e-02 3.277977183461189270e-02 -1.610475778579711914e-02 -1.132514514029026031e-02
-9.232043288648128510e-03 -1.311126543441787362e-04 -3.967082500457763672e-02 1.333341188728809357e-02 8.281107991933822632e-03 -2.469018474221229553e-02
-1.719618402421474457e-02 -7.493636105209589005e-03 -2.551634982228279114e-02 -1.023993920534849167e-02 -6.619471590965986252e-03 2.279913751408457756e-03
-2.651126869022846222e-02 -6.116053834557533264e-02 -1.266883872449398041e-02 8.783254772424697876e-02 4.120649769902229309e-02 -2.687796391546726227e-02
-2.174897119402885437e-02 -2.899121679365634918e-02 -3.065381571650505066e-02 5.666117370128631592e-02 1.062932424247264862e-02 3.655259031802415848e-03
1.518914662301540375e-02 -1.513803284615278244e-02 -2.290964126586914062e-02 1.216500811278820038e-02 -8.477404713630676270e-03 -3.415600582957267761e-02
-1.563037186861038208e-02 -3.835964575409889221e-02 -8.958664722740650177e-03 -1.851608045399188995e-02 -5.259433388710021973e-02 -6.536660343408584595e-02
-5.314533412456512451e-02 -3.020557202398777008e-02 -2.749638445675373077e-02 -1.157619059085845947e-03 -2.841973491013050079e-02 -2.219996973872184753e-02
-4.514897242188453674e-02 -2.780491299927234650e-02 -4.100424051284790039e-02 -4.258212074637413025e-02 -8.810447156429290771e-02 -1.294150948524475098e-01
1.939487643539905548e-02 1.713554747402667999e-02 2.725993655622005463e-02 4.345726221799850464e-02 -6.303072720766067505e-02 -5.963321775197982788e-02
7.577609270811080933e-02 5.390784889459609985e-02 9.136711061000823975e-02 8.899346739053726196e-02 -2.038634568452835083e-01 -2.200065106153488159e-01
-3.189428150653839111e-02 -2.436585538089275360e-02 -3.169442713260650635e-02 -3.473092243075370789e-02 -2.979608252644538879e-02 -4.641698300838470459e-02
-4.286683350801467896e-02 -2.839300036430358887e-02 4.560711979866027832e-02 4.553056508302688599e-02 -5.768098682165145874e-02 -8.703757822513580322e-02
-2.001330442726612091e-02 -9.961296804249286652e-03 -7.930168882012367249e-03 -1.585743506439030170e-03 -3.126078844070434570e-02 -4.307713359594345093e-02
-4.533512517809867859e-02 -2.132714726030826569e-02 -2.105070045217871666e-03 4.045300185680389404e-03 -1.317859739065170288e-01 -1.390508115291595459e-01
-3.177839145064353943e-02 -1.949463598430156708e-02 3.578095696866512299e-03 2.014538832008838654e-02 -2.379968389868736267e-02 -3.326712921261787415e-02
-3.669214621186256409e-02 -2.770212478935718536e-02 -1.877296343445777893e-02 -3.753411024808883667e-02 -5.975637212395668030e-02 -5.150916054844856262e-02
-5.364333279430866241e-03 -9.678817354142665863e-03 -4.305295646190643311e-02 -2.959389612078666687e-02 7.810638053342700005e-04 3.074340347666293383e-04
-5.700235813856124878e-02 -5.434447899460792542e-02 -2.083711326122283936e-02 -1.035521505400538445e-03 -5.395485088229179382e-02 -4.095829278230667114e-02
-2.134463004767894745e-02 -3.764052316546440125e-02 -1.982636190950870514e-02 -4.007057100534439087e-02 -1.493439543992280960e-02 -3.207545727491378784e-02
-3.586908057332038879e-02 -4.014750570058822632e-02 -1.717072352766990662e-02 -2.633059956133365631e-02 -5.765460059046745300e-02 -4.784949868917465210e-02
-2.246621996164321899e-02 -1.934473402798175812e-02 -3.208079561591148376e-02 -3.526866808533668518e-02 -2.837133035063743591e-02 -3.460253775119781494e-02
-7.852744311094284058e-02 8.248063176870346069e-02 3.638366237282752991e-02 4.466141387820243835e-02 5.275399237871170044e-02 -5.145194754004478455e-02
-3.798101097345352173e-02 -3.839595615863800049e-02 -2.185861393809318542e-02 -9.732439182698726654e-03 2.116200776072219014e-04 -3.854741528630256653e-02
-1.552320122718811035e-01 -7.853781431913375854e-02 3.159964457154273987e-02 -3.523239400237798691e-03 6.329840421676635742e-02 7.920100539922714233e-02
-7.756160199642181396e-02 -1.154528581537306309e-04 -9.295728802680969238e-02 -5.667454376816749573e-02 -1.224049925804138184e-01 -1.199648752808570862e-01
-2.389373630285263062e-01 -1.929583102464675903e-01 1.566702686250209808e-02 1.512874476611614227e-02 1.361965481191873550e-02 1.283021084964275360e-02
-1.514474861323833466e-02 5.457323510199785233e-03 -4.886506358161568642e-04 -2.354503422975540161e-02 -2.029607631266117096e-02 -3.988612815737724304e-02
-6.435361504554748535e-02 -5.986534059047698975e-02 -5.733774229884147644e-02 -4.553155228495597839e-02 -4.156101867556571960e-02 -5.583883449435234070e-02
-2.016435191035270691e-02 7.140258699655532837e-02 2.284526452422142029e-02 1.555425301194190979e-02 -1.157875265926122665e-02 1.448333356529474258e-02
-2.401075791567564011e-03 -2.490026876330375671e-02 -4.970915615558624268e-02 -2.516040019690990448e-02 -2.331432700157165527e-02 -4.544368013739585876e-03
-7.691823691129684448e-02 -1.882416009902954102e-02 -5.421205982565879822e-02 -1.386526413261890411e-02 -4.546128213405609131e-02 -3.210967406630516052e-02
-4.228106513619422913e-02 2.142534824088215828e-03 1.497269608080387115e-02 7.808299269527196884e-03 -2.109220251441001892e-02 -1.162150781601667404e-02
-2.113250084221363068e-02 -2.958202734589576721e-02 -4.368407186120748520e-03 -9.336914867162704468e-03 3.073988948017358780e-03 -2.811023034155368805e-02
-1.570022106170654297e-02 3.894210606813430786e-02 3.897256776690483093e-02 2.646280638873577118e-02 9.647291898727416992e-02 2.764863707125186920e-02
-5.270204972475767136e-03 -3.195137251168489456e-03 9.195014834403991699e-03 -7.065684348344802856e-02 -1.053432598710060120e-01 -1.015972048044204712e-01
-2.951339818537235260e-02 -1.636024564504623413e-02 -3.768864274024963379e-02 -2.643798850476741791e-02 -1.916633173823356628e-02 -2.721390128135681152e-02
-4.318456351757049561e-02 1.391327753663063049e-02 3.339400049299001694e-03 4.103100392967462540e-03 2.408191934227943420e-02 2.293636091053485870e-02
-4.170069471001625061e-02 2.858809009194374084e-02 -2.360196597874164581e-02 8.320755511522293091e-02 3.725729882717132568e-02 -1.334003917872905731e-02
-1.032353714108467102e-01 -9.912752360105514526e-02 9.640445560216903687e-02 4.379332810640335083e-02 2.059931680560112000e-02 -7.141680456697940826e-03
-1.460842229425907135e-02 -1.491552684456110001e-02 -2.170767821371555328e-02 -3.351819142699241638e-02 -1.082379557192325592e-02 -1.382732391357421875e-02
-6.520269066095352173e-02 -5.924153327941894531e-02 -2.021882310509681702e-02 -3.525621816515922546e-02 -1.228339225053787231e-02 -1.331163290888071060e-02
-1.118422523140907288e-01 -1.261091977357864380e-01 4.773974418640136719e-03 -4.531086236238479614e-02 1.537963864393532276e-03 -1.115638390183448792e-01
-2.839312255382537842e-01 -2.960275411605834961e-01 -1.349398400634527206e-02 -8.516347035765647888e-03 3.354318207129836082e-03 -3.774213604629039764e-03
-6.028933078050613403e-02 -1.580541208386421204e-02 -5.016023293137550354e-03 -3.777962923049926758e-02 2.220261096954345703e-02 -3.160922601819038391e-02
-5.063986405730247498e-02 -4.511813074350357056e-02 -1.411100029945373535e-01 -1.206152439117431641e-01 -9.794588387012481689e-02 -1.075570136308670044e-01
2.755620516836643219e-03 1.109517086297273636e-02 4.814906045794487000e-02 1.730573363602161407e-02 -1.720565371215343475e-02 -3.544995933771133423e-02
-9.999111294746398926e-03 -6.709590088576078415e-03 -3.643926465883851051e-03 -2.930644899606704712e-03 -9.210189804434776306e-03 -2.173921326175332069e-03
-1.062097474932670593e-01 -8.425466716289520264e-02 3.132164478302001953e-02 2.033924311399459839e-02 4.549989104270935059e-02 2.711117640137672424e-02
-5.335573852062225342e-02 -7.844507694244384766e-02 -1.795653812587261200e-02 -3.793828561902046204e-02 -2.651435136795043945e-02 -1.110477652400732040e-02
-2.792608179152011871e-02 -3.365912660956382751e-02 -1.178775637526996434e-04 -4.071520641446113586e-03 -1.484541501849889755e-02 4.522604402154684067e-03
-1.799724437296390533e-02 -2.722370997071266174e-02 1.578139141201972961e-02 -9.040368720889091492e-03 -1.288859872147440910e-03 3.373903222382068634e-03
-2.587497420608997345e-02 -2.783247269690036774e-02 1.371898781508207321e-02 3.239157795906066895e-02 -1.389987207949161530e-02 -4.084230586886405945e-02
-1.426989620085805655e-04 -1.784514449536800385e-02 -2.395190298557281494e-03 9.082632139325141907e-03 3.736260812729597092e-03 -6.382134277373552322e-03
-1.152232512831687927e-01 -9.858115762472152710e-02 1.659031659364700317e-01 7.398051768541336060e-02 -4.054731223732233047e-03 1.796719059348106384e-02
-4.501643404364585876e-02 -1.077714376151561737e-02 6.326413154602050781e-02 -8.496692171320319176e-04 2.271753922104835510e-02 -1.632111705839633942e-02
-6.759234517812728882e-02 4.208225384354591370e-02 6.720563396811485291e-03 1.038669422268867493e-02 2.739143092185258865e-03 -6.650105863809585571e-02
-1.043039746582508087e-02 -2.938400395214557648e-02 -1.925385557115077972e-02 -2.128618583083152771e-02 -5.213645473122596741e-02 -7.240914553403854370e-02
-6.675194948911666870e-02 -7.038320600986480713e-02 -5.654987320303916931e-02 -5.069047957658767700e-02 -2.926639467477798462e-02 -3.332913294434547424e-02
-7.068204879760742188e-02 -1.495871599763631821e-02 -4.321871325373649597e-02 -3.440126031637191772e-02 -9.580466151237487793e-02 -1.188213974237442017e-01
4.518530145287513733e-02 4.571404308080673218e-02 5.595941841602325439e-02 6.517736613750457764e-02 -1.267001032829284668e-01 -9.026410430669784546e-02
5.609949678182601929e-02 3.694505244493484497e-02 1.070360243320465088e-01 8.808588981628417969e-02 -1.988282948732376099e-01 -1.892632544040679932e-01
-5.545215681195259094e-02 -3.578663989901542664e-02 -4.313428699970245361e-02 -4.671090468764305115e-02 -4.186816141009330750e-02 -5.180608853697776794e-02
-5.699626356363296509e-02 -2.823930047452449799e-02 -2.334210090339183807e-03 2.432357287034392357e-03 -7.230801880359649658e-02 -6.641492247581481934e-02
-1.395933888852596283e-02 -1.860678754746913910e-02 -7.000400684773921967e-03 -1.088043325580656528e-03 -2.452479116618633270e-02 -5.162664875388145447e-02
-6.824301928281784058e-02 -3.028232045471668243e-02 -7.781443651765584946e-03 6.706787971779704094e-04 -1.404562145471572876e-01 -1.344279050827026367e-01
-4.858953878283500671e-02 -3.824417665600776672e-02 -2.749675512313842773e-02 -1.199622079730033875e-02 -4.433216899633407593e-02 -2.499252185225486755e-02
-3.120598569512367249e-02 -1.188441645354032516e-02 -1.220340281724929810e-02 -4.460004344582557678e-02 -4.347131773829460144e-02 -4.850279167294502258e-02
-2.961108461022377014e-02 -4.767733439803123474e-02 -3.128812089562416077e-02 -3.427160903811454773e-02 -1.003280747681856155e-03 -2.353352960199117661e-03
-6.888042390346527100e-02 -7.215312123298645020e-02 -4.618706554174423218e-02 -3.274488076567649841e-02 -4.770071059465408325e-02 -3.255678340792655945e-02
-5.461639910936355591e-02 -4.903618618845939636e-02 -3.843397647142410278e-02 -5.626089125871658325e-02 -3.443090990185737610e-02 -4.592909291386604309e-02
-2.215075306594371796e-02 7.184825837612152100e-03 1.545568089932203293e-02 -1.634729839861392975e-02 -4.464667662978172302e-02 -5.676499754190444946e-02
-1.310331653803586960e-02 -3.023816505447030067e-03 -2.409970387816429138e-02 -1.569461263716220856e-02 -3.620661795139312744e-02 -2.968037500977516174e-02
-1.092828139662742615e-01 1.098664999008178711e-01 3.518932685256004333e-02 2.005255781114101410e-02 5.767266079783439636e-02 -1.044513210654258728e-01
-1.455623283982276917e-02 2.234735991805791855e-03 -1.295623276382684708e-02 3.822726430371403694e-03 -2.248535305261611938e-02 -1.535536162555217743e-02
-1.400077491998672485e-01 -4.036350175738334656e-02 -5.326911807060241699e-02 3.079652786254882812e-02 1.501418054103851318e-01 1.531399488449096680e-01
-7.496573030948638916e-02 4.479338414967060089e-03 -1.078073214739561081e-02 -4.451628774404525757e-02 -7.916958630084991455e-02 -1.014024615287780762e-01
-2.823366820812225342e-01 -9.705018997192382812e-02 -4.437604919075965881e-03 -6.224799901247024536e-03 6.744212587364017963e-04 -3.666220698505640030e-03
1.134602702222764492e-03 4.416667297482490540e-02 -4.986163601279258728e-02 -2.208944968879222870e-02 -9.946254082024097443e-03 -2.757461741566658020e-02
-5.210728570818901062e-02 -4.638396203517913818e-02 -6.341825425624847412e-02 -6.060285121202468872e-02 -5.572299659252166748e-02 -2.115239948034286499e-02
-3.715938702225685120e-02 3.527615219354629517e-02 -4.702109843492507935e-03 1.152541581541299820e-02 -5.612471606582403183e-03 -1.386695913970470428e-02
-1.530678756535053253e-02 -3.953377381549216807e-05 -3.508208692073822021e-02 -2.890707366168498993e-02 -2.213984727859497070e-02 -1.322990935295820236e-02
-7.684367895126342773e-02 3.377688582986593246e-03 -3.903411328792572021e-02 -4.092715680599212646e-02 -1.864716410636901855e-02 -6.794296950101852417e-02
-5.335332825779914856e-02 2.902708947658538818e-02 -5.308312829583883286e-03 -3.304833918809890747e-02 -9.561149403452873230e-03 -1.647006138227880001e-04
-1.384968589991331100e-02 -3.321899101138114929e-02 -8.111791685223579407e-03 -1.648762496188282967e-03 5.032343906350433826e-04 -6.385250017046928406e-03
-4.079189151525497437e-02 5.290401726961135864e-02 6.361662596464157104e-02 2.472593262791633606e-02 4.420544207096099854e-02 5.961179733276367188e-02
-4.217707086354494095e-03 -5.772829521447420120e-03 -3.124093823134899139e-02 -1.122355908155441284e-01 -1.016528978943824768e-01 -9.505484998226165771e-02
-1.805459521710872650e-02 9.467432275414466858e-03 -5.761933862231671810e-04 -9.833392687141895294e-03 3.364447271451354027e-03 -3.884645411744713783e-03
-9.682639688253402710e-02 8.701602369546890259e-02 3.885024413466453552e-02 -1.111134421080350876e-03 1.631007902324199677e-02 1.478429138660430908e-02
-6.354729086160659790e-02 7.106187939643859863e-02 -1.908399537205696106e-02 4.650202021002769470e-02 -1.019213255494832993e-02 -4.925784096121788025e-02
9.327463805675506592e-03 5.553934257477521896e-03 -1.069102669134736061e-03 1.261458545923233032e-02 4.436773248016834259e-03 -2.025533467531204224e-02
-5.321008339524269104e-02 -4.275055974721908569e-02 -4.226243123412132263e-02 -2.368234656751155853e-02 -2.747463807463645935e-02 -3.822008892893791199e-02
-1.464819163084030151e-01 -1.266406625509262085e-01 4.762924090027809143e-02 3.278660029172897339e-02 6.466539949178695679e-02 6.882604956626892090e-02
-6.418776512145996094e-02 -3.747606649994850159e-02 -1.457730233669281006e-01 -1.024065390229225159e-01 -1.007727161049842834e-01 -8.843766897916793823e-02
-2.456907778978347778e-01 -1.853714734315872192e-01 3.936311230063438416e-02 3.350531682372093201e-02 2.841238491237163544e-02 1.898964680731296539e-02
-3.249228745698928833e-02 1.429640501737594604e-02 -2.295242156833410263e-03 -3.244625404477119446e-02 -3.383057191967964172e-02 -6.459183245897293091e-02
-5.673091113567352295e-02 -6.637616455554962158e-02 -7.725243270397186279e-02 -5.235521495342254639e-02 -5.663499981164932251e-02 -3.397635370492935181e-02
1.739467988954856992e-04 1.411003898829221725e-02 1.719874702394008636e-02 3.630201891064643860e-02 1.788206771016120911e-02 3.004096634685993195e-02
-1.275097671896219254e-02 -2.971706166863441467e-02 -3.403795510530471802e-02 -4.738917574286460876e-02 -3.026424162089824677e-02 -2.950560860335826874e-02
-7.576792687177658081e-02 -6.027112156152725220e-02 -4.161398112773895264e-02 -2.232622914016246796e-02 -3.378864750266075134e-02 -4.344851151108741760e-02
-4.382498189806938171e-02 -3.903016075491905212e-02 -8.199060335755348206e-03 1.481645461171865463e-02 -3.622058406472206116e-02 -2.540697157382965088e-02
-1.950982026755809784e-02 -1.618393138051033020e-02 4.539927467703819275e-03 7.641352247446775436e-03 3.642330178990960121e-03 -2.600944787263870239e-02
9.998838650062680244e-04 3.794729709625244141e-03 8.440813049674034119e-03 -7.465998642146587372e-03 3.624482825398445129e-02 1.730197295546531677e-02
1.162199885584414005e-03 -1.063727214932441711e-02 -3.738686442375183105e-02 -9.939341247081756592e-02 -1.111992672085762024e-01 -5.219702422618865967e-02
-3.663765639066696167e-02 -1.830687560141086578e-02 -3.863538429141044617e-02 -3.172658383846282959e-02 -2.706028148531913757e-02 -3.639117255806922913e-02
-5.453289952129125595e-03 -2.018081955611705780e-02 1.236583106219768524e-03 4.724652972072362900e-03 1.256660465151071548e-02 -4.825901240110397339e-03
-1.512917503714561462e-02 -1.873487234115600586e-02 2.389583922922611237e-02 3.881222754716873169e-02 1.147342938929796219e-02 -3.894122783094644547e-03
-2.760693058371543884e-02 -3.087466023862361908e-02 -1.260389201343059540e-02 -1.067970879375934601e-02 2.254066988825798035e-03 -1.523219700902700424e-02
-4.389352351427078247e-02 -5.293959751725196838e-02 -6.739628314971923828e-02 -5.547946318984031677e-02 -4.110661149024963379e-02 -6.721828132867813110e-02
-1.159103438258171082e-01 -1.097433045506477356e-01 6.866613402962684631e-03 -3.692607861012220383e-03 2.594610676169395447e-02 2.418901957571506500e-02
-6.082464382052421570e-02 -5.354314297437667847e-02 -9.974563121795654297e-02 -7.198683172464370728e-02 -8.715723454952239990e-02 -6.299645453691482544e-02
-1.946568936109542847e-01 -1.706038266420364380e-01 6.211364269256591797e-02 5.602883175015449524e-02 5.220423266291618347e-02 4.503535851836204529e-02
-3.371668979525566101e-02 -3.175385296344757080e-02 -1.406939793378114700e-02 -3.507017344236373901e-02 -4.578619077801704407e-02 -4.726722463965415955e-02
-4.403811693191528320e-02 -6.620348244905471802e-02 -5.805983394384384155e-02 -5.706974491477012634e-02 -4.853560402989387512e-02 -4.668777808547019958e-02
9.980156086385250092e-03 1.977140270173549652e-02 1.606464199721813202e-02 2.353266440331935883e-02 1.280062459409236908e-02 2.254878915846347809e-02
-4.385514650493860245e-03 -7.812678813934326172e-03 -5.020859465003013611e-02 -3.536493703722953796e-02 -3.339200466871261597e-02 -8.388205431401729584e-03
-8.079502731561660767e-02 -5.162617191672325134e-02 -7.397980242967605591e-02 -6.544627994298934937e-02 -3.991084918379783630e-02 -5.946739390492439270e-02
-5.606973916292190552e-02 -5.199733749032020569e-02 -3.627078980207443237e-02 -2.053774148225784302e-02 -4.383565858006477356e-02 -4.884495586156845093e-02
-2.559077367186546326e-02 -3.080071695148944855e-02 -1.276796031743288040e-02 -8.950086310505867004e-03 -4.951597191393375397e-03 -1.769283786416053772e-02
-4.579113796353340149e-03 -2.467068377882242203e-03 3.230538964271545410e-02 2.556406706571578979e-02 4.745820164680480957e-02 4.204340651631355286e-02
8.921308442950248718e-03 -6.238154019229114056e-04 -8.024678565561771393e-03 -5.144657939672470093e-02 -5.069511011242866516e-02 -9.793592989444732666e-02
-3.062006272375583649e-02 -2.272628620266914368e-02 -4.210629314184188843e-02 -4.610421136021614075e-02 -5.539295449852943420e-02 -4.050412029027938843e-02
-4.089533537626266479e-02 -3.674739971756935120e-02 -2.932575158774852753e-02 -3.399281064048409462e-03 -1.372119970619678497e-02 -2.299156039953231812e-02
-1.224153861403465271e-02 -1.377793308347463608e-02 -1.327913487330079079e-03 3.902821242809295654e-02 1.272133830934762955e-02 2.437827875837683678e-03
-1.038139611482620239e-01 3.814447298645973206e-02 1.534889824688434601e-02 6.521996110677719116e-03 4.442203044891357422e-02 -9.760320931673049927e-02
-5.696681514382362366e-02 -3.454783931374549866e-02 -5.004057660698890686e-02 -5.260666087269783020e-02 -4.653692990541458130e-02 -6.299573928117752075e-02
-1.523024886846542358e-01 -1.308305412530899048e-01 4.110419005155563354e-02 4.561367630958557129e-02 5.923559516668319702e-02 6.369433552026748657e-02
-8.105169236660003662e-02 -9.435567073523998260e-03 -1.162297874689102173e-01 -7.706073671579360962e-02 -8.274760842323303223e-02 -7.764263451099395752e-02
-2.561685144901275635e-01 -1.811889111995697021e-01 5.289720371365547180e-02 5.030035600066184998e-02 4.268826916813850403e-02 2.847201749682426453e-02
-2.809803374111652374e-02 -1.023025717586278915e-03 1.536249462515115738e-02 -3.038930892944335938e-02 -6.739550083875656128e-02 -5.882172286510467529e-02
-6.738159805536270142e-02 -8.536405861377716064e-02 -9.422893822193145752e-02 -6.780959665775299072e-02 -4.905606433749198914e-02 -4.988045617938041687e-02
-3.056676127016544342e-02 2.251306921243667603e-02 1.303719007410109043e-03 -1.786313578486442566e-02 -2.830063551664352417e-02 -2.371855266392230988e-02
-4.330515116453170776e-02 -3.675861656665802002e-02 -5.996594578027725220e-02 -3.616282343864440918e-02 -3.784132376313209534e-02 -1.471203099936246872e-02
-1.295140832662582397e-01 -1.653099991381168365e-02 -6.983710080385208130e-02 -5.681558698415756226e-02 -7.241357862949371338e-02 -3.818622604012489319e-02
-1.111021786928176880e-01 -2.120414376258850098e-02 -1.133465953171253204e-02 -3.293434530496597290e-02 -5.930927023291587830e-02 -6.164669990539550781e-02
-3.093114867806434631e-02 -3.309061005711555481e-02 -2.490330301225185394e-02 -3.238304052501916885e-04 3.610864281654357910e-03 -3.209362924098968506e-02
-6.650353781878948212e-03 1.173884700983762741e-02 2.442719414830207825e-04 -1.378746982663869858e-02 3.426387906074523926e-02 -1.288171950727701187e-02
2.103317761793732643e-03 -3.008446656167507172e-04 -3.403444960713386536e-02 -8.678919821977615356e-02 -1.169410347938537598e-01 -1.062168553471565247e-01
-3.117372281849384308e-02 -3.668381646275520325e-02 -5.251425877213478088e-02 -4.327997565269470215e-02 -4.965163394808769226e-02 -4.413811489939689636e-02
-6.460587680339813232e-02 2.260854654014110565e-02 2.111149393022060394e-02 -3.444669023156166077e-02 6.357934908010065556e-04 -3.899855539202690125e-02
-3.424246609210968018e-02 2.411608025431632996e-02 -2.208057045936584473e-02 2.579562924802303314e-02 1.843028352595865726e-03 -1.561788097023963928e-02
-1.383739523589611053e-03 -4.851381760090589523e-03 -5.217349156737327576e-03 -1.798352599143981934e-02 -4.301694780588150024e-02 -4.160806164145469666e-02
